#pragma once
#include <cstdarg>
namespace Eloquent {
    namespace ML {
        namespace Port {
            class SVM {
                public:
                    /**
                    * Predict class for features vector
                    */
                    int predict(float *x) {
                        float kernels[291] = { 0 };
                        float decisions[1] = { 0 };
                        int votes[2] = { 0 };
                        kernels[0] = compute_kernel(x,   0.208583831787  , 0.317729353905  , 0.469778418541  , 0.546837091446  , 0.619586467743  , 0.763381183147  , 0.868300378323  , 0.939857244492  , 0.70352935791  , 0.274607121944  , 0.027507066727  , 0.04584697634  , 0.160942450166  , 0.269488185644  , 0.243147909641  , 0.1665789783  , 0.171235203743  , 0.313596189022  , 0.454790234566  , 0.541267573833  , 0.617349207401  , 0.818928420544  , 0.966553628445  , 0.856496632099  , 0.470891982317  , 0.087596043944  , 0.020552856848  , 0.062468439341  , 0.204211339355  , 0.302909582853  , 0.231369882822  , 0.148116379976  , 0.216675072908  , 0.356311738491  , 0.470124602318  , 0.586247503757  , 0.721899926662  , 0.814804375172  , 0.776187121868  , 0.551205813885  , 0.21251103282  , 0.090519398451  , 0.102774456143  , 0.186285942793  , 0.268575578928  , 0.287048488855  , 0.224522605538  , 0.2439173311  , 0.332289159298  , 0.417626768351  , 0.55978423357  , 0.699187099934  , 0.857884705067  , 0.869681715965  , 0.702505469322  , 0.310471057892  , 0.039147172123  , 0.041746616364  , 0.200608476996  , 0.347223579884  , 0.387829661369  , 0.278112441301  , 0.274376928806  , 0.38355922699  , 0.481356799603  , 0.560556769371  , 0.657346427441  , 0.783213436604  , 0.830415546894  , 0.751526594162  , 0.505729079247  , 0.244298458099  , 0.088453270495  , 0.133141875267  , 0.287164270878  , 0.330575287342  , 0.211869060993  , 0.19626109302  , 0.220751002431  , 0.277127981186  , 0.388362318277  , 0.526764392853  , 0.653197109699  , 0.725297093391  , 0.653457164764  , 0.494875609875  , 0.279887318611  , 0.100821793079  , 0.068582966924  , 0.182992681861  , 0.25296163559  , 0.274797827005  , 0.289994299412  , 0.257600456476  , 0.298030883074  , 0.37031275034  , 0.482095509768  , 0.612649679184  , 0.643297553062  , 0.641883730888  , 0.51775509119  , 0.339861273766  , 0.113081648946  , 0.048533476889  , 0.37173974514  , 0.202850311995  , 0.028039729223  , 0.044015355408  , 0.135659053922  , 0.134176641703  , 0.140447646379  , 0.13642975688  , 0.192131772637 );
                        kernels[1] = compute_kernel(x,   0.371661216021  , 0.329776614904  , 0.244793817401  , 0.176513999701  , 0.143593683839  , 0.16292783618  , 0.232958957553  , 0.290365278721  , 0.286091268063  , 0.21868352592  , 0.159922122955  , 0.151805907488  , 0.173640340567  , 0.197565615177  , 0.221651047468  , 0.298690795898  , 0.436288654804  , 0.504793822765  , 0.474389076233  , 0.339822858572  , 0.197621971369  , 0.120076552033  , 0.121010571718  , 0.175896421075  , 0.203763335943  , 0.214625224471  , 0.210759297013  , 0.213936626911  , 0.240887373686  , 0.293601751328  , 0.294864833355  , 0.353187561035  , 0.387497007847  , 0.419178277254  , 0.433181524277  , 0.348812937737  , 0.224976420403  , 0.159688174725  , 0.187853947282  , 0.194783598185  , 0.174811244011  , 0.142485052347  , 0.11540132761  , 0.098386570811  , 0.09398958832  , 0.144407719374  , 0.189786016941  , 0.205988392234  , 0.264946788549  , 0.296729922295  , 0.374277412891  , 0.415644884109  , 0.33966550231  , 0.346305340528  , 0.387898057699  , 0.403109639883  , 0.321788549423  , 0.265218645334  , 0.144321635365  , 0.145273819566  , 0.141421243548  , 0.188921272755  , 0.244984209538  , 0.264868915081  , 0.256071835756  , 0.25561195612  , 0.260780513287  , 0.293126881123  , 0.350106567144  , 0.312525212765  , 0.196991533041  , 0.176133230329  , 0.182455778122  , 0.180324375629  , 0.131678625941  , 0.044860430062  , 0.059469278902  , 0.058292165399  , 0.096158221364  , 0.117088496685  , 0.135383605957  , 0.162306800485  , 0.294817119837  , 0.374857991934  , 0.389645695686  , 0.430361032486  , 0.473648488522  , 0.515212893486  , 0.473074227571  , 0.467849314213  , 0.416436523199  , 0.334561794996  , 0.225022554398  , 0.182794734836  , 0.259011536837  , 0.283526748419  , 0.403188854456  , 0.625776827335  , 0.786212563515  , 0.724898517132  , 0.410323351622  , 0.218968123198  , 0.128296419978  , 0.161653116345  , 0.0246970281  , 0.061687834561  , 0.085733145475  , 0.163699775934  , 0.23910357058  , 0.360146105289  , 0.468013048172  , 0.491240829229  , 0.419617056847 );
                        kernels[2] = compute_kernel(x,   0.710361480713  , 0.45030605793  , 0.208397641778  , 0.166702836752  , 0.217921286821  , 0.299139022827  , 0.330841183662  , 0.299160212278  , 0.352443754673  , 0.346202254295  , 0.375339180231  , 0.482499748468  , 0.593824565411  , 0.638562917709  , 0.709433674812  , 0.824535310268  , 0.815416872501  , 0.532788813114  , 0.171651750803  , 0.064859218895  , 0.088341169059  , 0.201495409012  , 0.346969485283  , 0.389793038368  , 0.353657573462  , 0.338173747063  , 0.382062733173  , 0.508368909359  , 0.573592424393  , 0.61993265152  , 0.653664767742  , 0.721774399281  , 0.799605488777  , 0.779934346676  , 0.509530425072  , 0.175878584385  , 0.073899582028  , 0.121368639171  , 0.232910364866  , 0.356000393629  , 0.355763792992  , 0.33434137702  , 0.306443929672  , 0.390554666519  , 0.448651701212  , 0.576030135155  , 0.649949252605  , 0.655606329441  , 0.775279998779  , 0.70403856039  , 0.409460812807  , 0.094474747777  , 0.020118374377  , 0.086672335863  , 0.195080548525  , 0.294573664665  , 0.305538713932  , 0.305176109076  , 0.258560478687  , 0.348683297634  , 0.371883273125  , 0.404578119516  , 0.422509163618  , 0.46735304594  , 0.585119366646  , 0.592727839947  , 0.462121874094  , 0.252467632294  , 0.10517603159  , 0.097989298403  , 0.113614544272  , 0.085686519742  , 0.035921670496  , 0.014054468833  , 0.013169273734  , 0.024035492912  , 0.10993681103  , 0.14812490344  , 0.168411120772  , 0.259781897068  , 0.433032870293  , 0.473650604486  , 0.522896587849  , 0.69899725914  , 0.852790474892  , 0.945795595646  , 0.663072764874  , 0.267708957195  , 0.010989159346  , 0.002722481266  , 0.06039263308  , 0.112180009484  , 0.128777638078  , 0.050149768591  , 0.00174537953  , 0.054632335901  , 0.110626794398  , 0.015068422072  , 0.117355592549  , 0.219687461853  , 0.216059058905  , 0.250647544861  , 0.261851966381  , 0.172209173441  , 0.408046424389  , 0.44553861022  , 0.527436137199  , 0.603034317493  , 0.703902959824  , 0.787406384945  , 0.881073176861  , 0.829485952854  , 0.603959321976 );
                        kernels[3] = compute_kernel(x,   0.407960772514  , 0.452982902527  , 0.509731531143  , 0.597360193729  , 0.716494083405  , 0.843799173832  , 0.839188218117  , 0.801272571087  , 0.679970979691  , 0.47985509038  , 0.280334293842  , 0.170578658581  , 0.171238929033  , 0.227623581886  , 0.295859694481  , 0.309764564037  , 0.317068994045  , 0.364070415497  , 0.425589501858  , 0.498224705458  , 0.575276315212  , 0.654645740986  , 0.758080542088  , 0.782991588116  , 0.707265853882  , 0.535761475563  , 0.199717327952  , 0.02079705894  , 0.042589005083  , 0.130907088518  , 0.230559885502  , 0.299215197563  , 0.354877203703  , 0.36946105957  , 0.460033714771  , 0.596671402454  , 0.661193549633  , 0.707866132259  , 0.781280100346  , 0.878047049046  , 0.885662198067  , 0.720572412014  , 0.386598020792  , 0.131515428424  , 0.038746342063  , 0.070353060961  , 0.193133756518  , 0.273919641972  , 0.317611128092  , 0.359613358974  , 0.420495122671  , 0.48230266571  , 0.551412045956  , 0.632963180542  , 0.70834171772  , 0.770983099937  , 0.875224947929  , 0.923833250999  , 0.760738015175  , 0.335798680782  , 0.099806927145  , 0.057687342167  , 0.12882758677  , 0.214757964015  , 0.257614374161  , 0.264804124832  , 0.303476423025  , 0.376099646091  , 0.462765991688  , 0.542682170868  , 0.611174821854  , 0.700104176998  , 0.785993278027  , 0.903601467609  , 0.969329953194  , 0.821647584438  , 0.478359848261  , 0.165023550391  , 0.022532112896  , 0.029818128794  , 0.115058027208  , 0.184808149934  , 0.235766932368  , 0.266162544489  , 0.30351921916  , 0.393859148026  , 0.459888398647  , 0.534054815769  , 0.648033261299  , 0.80259758234  , 0.933247864246  , 0.97214025259  , 0.857797801495  , 0.580686271191  , 0.186994120479  , 0.007784899324  , 0.066149294376  , 0.165963813663  , 0.277413159609  , 0.30244743824  , 0.280444532633  , 0.34437674284  , 0.451093524694  , 0.609216868877  , 0.007257945836  , 0.112457670271  , 0.184834286571  , 0.319919347763  , 0.425592720509  , 0.512183845043  , 0.615502774715  , 0.70050996542  , 0.72862392664 );
                        kernels[4] = compute_kernel(x,   0.235248953104  , 0.342670977116  , 0.449934452772  , 0.532868683338  , 0.584237217903  , 0.648878276348  , 0.679610967636  , 0.698807120323  , 0.434367179871  , 0.113461732864  , -0.016189035028  , 0.013976844028  , 0.097487658262  , 0.197874695063  , 0.212739288807  , 0.207397431135  , 0.233877524734  , 0.351516246796  , 0.472670912743  , 0.523439347744  , 0.574991822243  , 0.765157520771  , 0.855035483837  , 0.717129230499  , 0.382696479559  , 0.040791861713  , 0.001539694844  , 0.029822856188  , 0.125302508473  , 0.230551078916  , 0.203207105398  , 0.160789757967  , 0.238661512733  , 0.354476243258  , 0.40100941062  , 0.496908783913  , 0.657317459583  , 0.755476474762  , 0.714983761311  , 0.509896457195  , 0.167819499969  , 0.022284373641  , 0.036009114236  , 0.144631117582  , 0.219176933169  , 0.227012038231  , 0.218920961022  , 0.29530698061  , 0.389690071344  , 0.469912409782  , 0.603746950626  , 0.731016516685  , 0.870188653469  , 0.812490582466  , 0.608581423759  , 0.278824031353  , 0.052400518209  , 0.085589230061  , 0.2011385113  , 0.293324828148  , 0.378020763397  , 0.353890508413  , 0.360543429852  , 0.440315693617  , 0.529127120972  , 0.623605251312  , 0.798311412334  , 0.992442905903  , 0.915221810341  , 0.671146452427  , 0.270486265421  , 0.061779443175  , 0.124013505876  , 0.233024150133  , 0.332127869129  , 0.332196682692  , 0.290401935577  , 0.378453314304  , 0.464770793915  , 0.529404640198  , 0.609342515469  , 0.765488684177  , 0.831242024899  , 0.72563546896  , 0.428879499435  , 0.115614511073  , 0.048551853746  , 0.195958018303  , 0.293706476688  , 0.277448534966  , 0.258100181818  , 0.270854830742  , 0.348546504974  , 0.410537213087  , 0.585989952087  , 0.705683112144  , 0.783273816109  , 0.639196097851  , 0.282687693834  , 0.070337474346  , 0.056217450649  , 0.171436280012  , 0.263934314251  , 0.313593924046  , 0.006595060229  , 0.025758385658  , 0.050098635256  , 0.079725839198  , 0.181372001767  , 0.246488928795  , 0.365063339472  , 0.448176950216  , 0.537998735905 );
                        kernels[5] = compute_kernel(x,   0.664619922638  , 0.651176869869  , 0.483006864786  , 0.325332164764  , 0.263630717993  , 0.194821059704  , 0.242576152086  , 0.305468320847  , 0.211425542831  , 0.220519825816  , 0.343673586845  , 0.518097877502  , 0.565974593163  , 0.611316680908  , 0.678164124489  , 0.773092567921  , 0.836984157562  , 0.891007363796  , 0.930079102516  , 0.853271842003  , 0.629191756248  , 0.428340524435  , 0.244793564081  , 0.097191534936  , 0.103577971458  , 0.084941610694  , 0.111564710736  , 0.089054092765  , 0.122850984335  , 0.167977303267  , 0.214012563229  , 0.213249474764  , 0.291702181101  , 0.344823509455  , 0.407610595226  , 0.467371970415  , 0.553796768188  , 0.661982119083  , 0.640201985836  , 0.356492608786  , 0.085926100612  , 0.063062921166  , 0.122709691525  , 0.186619251966  , 0.272622257471  , 0.307941675186  , 0.283413141966  , 0.336026966572  , 0.476675719023  , 0.532231628895  , 0.577717959881  , 0.635538697243  , 0.687930762768  , 0.795768201351  , 0.864427089691  , 0.842854499817  , 0.58413207531  , 0.208155199885  , 0.06319630146  , 0.144449517131  , 0.223190382123  , 0.261274456978  , 0.283998280764  , 0.312633752823  , 0.376176148653  , 0.467573285103  , 0.546776175499  , 0.581697642803  , 0.616630792618  , 0.704208731651  , 0.748693466187  , 0.781106889248  , 0.672985672951  , 0.4078810215  , 0.20610255003  , 0.079050421715  , 0.141193076968  , 0.251814424992  , 0.254701733589  , 0.275720715523  , 0.326304852962  , 0.418078392744  , 0.515179216862  , 0.6109354496  , 0.669179141521  , 0.674461603165  , 0.809118807316  , 0.895444571972  , 0.817737817764  , 0.498428463936  , 0.197342261672  , 0.088361024857  , 0.059805616736  , 0.067424312234  , 0.193283453584  , 0.108265899122  , 0.008816207759  , 0.051386710256  , 0.111488766968  , 0.105577930808  , 0.069227516651  , 0.141334325075  , 0.17727804184  , 0.221253886819  , 0.117085546255  , 0.109503470361  , 0.203934147954  , 0.308472514153  , 0.408105641603  , 0.506356954575  , 0.577690660954  , 0.607246637344  , 0.679346144199 );
                        kernels[6] = compute_kernel(x,   0.073167979717  , 0.072325855494  , 0.083810806274  , 0.124591358006  , 0.238468751311  , 0.362285077572  , 0.489366471767  , 0.585554540157  , 0.495409309864  , 0.386686176062  , 0.282006978989  , 0.133491620421  , 0.061691630632  , 0.093623615801  , 0.116476148367  , 0.122659832239  , 0.123602941632  , 0.194983989  , 0.24714230001  , 0.299979895353  , 0.418356120586  , 0.495139151812  , 0.526940047741  , 0.628846943378  , 0.702765226364  , 0.735411047935  , 0.82105499506  , 0.695301294327  , 0.278924882412  , 0.08966537565  , 0.15526843071  , 0.128745540977  , 0.037591069937  , 0.06116463989  , 0.096893250942  , 0.111240968108  , 0.168165832758  , 0.228886783123  , 0.306500196457  , 0.41741040349  , 0.555621504784  , 0.614304840565  , 0.650618851185  , 0.666093349457  , 0.755460560322  , 0.863945543766  , 0.820483446121  , 0.534040629864  , 0.219415321946  , 0.086468622088  , 0.042055614293  , 0.072246961296  , 0.122045263648  , 0.144388377666  , 0.100650250912  , 0.127001717687  , 0.211873367429  , 0.227318122983  , 0.335332632065  , 0.502401828766  , 0.643506765366  , 0.692890226841  , 0.819105148315  , 0.888466715813  , 0.848713755608  , 0.818780004978  , 0.692840278149  , 0.324966371059  , 0.049087110907  , -0.045577123761  , 0.056759458035  , 0.137717425823  , 0.180714562535  , 0.154798462987  , 0.169606745243  , 0.18653768301  , 0.254839211702  , 0.316674619913  , 0.422706991434  , 0.543585002422  , 0.612407028675  , 0.755297482014  , 0.861933529377  , 0.868928194046  , 0.595871329308  , 0.296208500862  , 0.055701240897  , -0.011812368408  , 0.059732176363  , 0.135315001011  , 0.151815950871  , 0.151502251625  , 0.142953783274  , 0.20549313724  , 0.357997089624  , 0.391879528761  , 0.416261851788  , 0.542818129063  , 0.68904542923  , 0.787433624268  , 0.815921545029  , 0.742943108082  , 0.463575899601  , 0.227429881692  , 0.049632750452  , 0.102653883398  , 0.078674204648  , 0.091619290411  , 0.119077809155  , 0.090123035014  , 0.064001746476  , 0.131484404206  , 0.244856849313 );
                        kernels[7] = compute_kernel(x,   0.704429745674  , 0.730366051197  , 0.71036696434  , 0.634515225887  , 0.516023218632  , 0.269220650196  , 0.112426921725  , 0.138537824154  , 0.206766560674  , 0.322338223457  , 0.332842588425  , 0.285665750504  , 0.295368313789  , 0.370954036713  , 0.455646008253  , 0.503605663776  , 0.592853009701  , 0.655562341213  , 0.729828298092  , 0.800588786602  , 0.79767781496  , 0.635537147522  , 0.34516903758  , 0.144115298986  , 0.092443719506  , 0.186695829034  , 0.243262439966  , 0.262041866779  , 0.260374367237  , 0.249182373285  , 0.285501748323  , 0.376239389181  , 0.467836380005  , 0.487484186888  , 0.583593070507  , 0.672275006771  , 0.722666203976  , 0.78787779808  , 0.809870779514  , 0.688072264194  , 0.478455275297  , 0.278860151768  , 0.140011027455  , 0.11206343025  , 0.145303085446  , 0.210453003645  , 0.256416469812  , 0.318509697914  , 0.366873681545  , 0.339999198914  , 0.42044505477  , 0.504719436169  , 0.555110514164  , 0.604644656181  , 0.698286533356  , 0.784791529179  , 0.866054594517  , 0.883161306381  , 0.744854450226  , 0.438394397497  , 0.205844417214  , 0.142885312438  , 0.103308498859  , 0.130418285728  , 0.099313765764  , 0.06394520402  , 0.062940850854  , 0.160110279918  , 0.109958060086  , 0.1214780882  , 0.161686509848  , 0.254074901342  , 0.38540905714  , 0.509759247303  , 0.574150562286  , 0.664293944836  , 0.835160553455  , 0.745443820953  , 0.371679008007  , 0.117471560836  , 0.205700874329  , 0.209369912744  , 0.243779718876  , 0.23822055757  , 0.303472459316  , 0.299731969833  , 0.338410049677  , 0.400182157755  , 0.460816830397  , 0.552043259144  , 0.673759281635  , 0.759138822556  , 0.796378016472  , 0.909447968006  , 0.950232028961  , 0.852700173855  , 0.721557855606  , 0.412637889385  , 0.168739914894  , 0.125500634313  , 0.175543010235  , 0.301843285561  , 0.329454302788  , 0.333731353283  , 0.028932094574  , 0.062611162663  , 0.09992762655  , 0.163685172796  , 0.230294182897  , 0.270692586899  , 0.289358139038  , 0.361351877451  , 0.520680546761 );
                        kernels[8] = compute_kernel(x,   0.223451018333  , 0.203383803368  , 0.154897242785  , 0.129025354981  , 0.101778261364  , 0.103327743709  , 0.128109663725  , 0.159070909023  , 0.25000423193  , 0.291093885899  , 0.353876769543  , 0.370861887932  , 0.30430573225  , 0.232787832618  , 0.117205694318  , 0.075390398502  , 0.091199681163  , 0.131832674146  , 0.230709910393  , 0.17745025456  , 0.115291617811  , 0.147578641772  , 0.188703417778  , 0.249443665147  , 0.294433891773  , 0.337157487869  , 0.342326968908  , 0.334945559502  , 0.350030869246  , 0.381667613983  , 0.25353255868  , 0.165196076035  , 0.07727342099  , 0.14277921617  , 0.187168419361  , 0.263299018145  , 0.319253027439  , 0.323980033398  , 0.363442420959  , 0.412685662508  , 0.46704235673  , 0.388186275959  , 0.362653434277  , 0.363715589046  , 0.294940322638  , 0.267470508814  , 0.244834065437  , 0.261797070503  , 0.315048009157  , 0.264266610146  , 0.223790630698  , 0.189881831408  , 0.156290918589  , 0.164930388331  , 0.218734994531  , 0.251419961452  , 0.180389299989  , 0.194210961461  , 0.218139991164  , 0.293337881565  , 0.312609493732  , 0.36715850234  , 0.461390584707  , 0.49545943737  , 0.619229197502  , 0.747373521328  , 0.843317806721  , 0.828711330891  , 0.807569682598  , 0.636761546135  , 0.302071362734  , 0.142477631569  , 0.119989089668  , 0.166378676891  , 0.245412915945  , 0.217363730073  , 0.15078663826  , 0.123579010367  , 0.171836569905  , 0.225849404931  , 0.258283704519  , 0.344688236713  , 0.492631584406  , 0.569599866867  , 0.58067715168  , 0.564970731735  , 0.622357904911  , 0.678657472134  , 0.567744016647  , 0.27784126997  , 0.065028317273  , 0.061187531799  , 0.069905653596  , 0.080588266253  , 0.162853777409  , 0.131434291601  , 0.060663942248  , 0.08085399121  , 0.127672821283  , 0.124711021781  , 0.129733711481  , 0.235959917307  , 0.296726465225  , 0.315860956907  , 0.242710158229  , 0.381301164627  , 0.492007374763  , 0.608537852764  , 0.703849673271  , 0.800669133663  , 0.89535599947  , 0.927808225155  , 0.849993824959 );
                        kernels[9] = compute_kernel(x,   0.5894947052  , 0.668119966984  , 0.634701132774  , 0.536511063576  , 0.289622336626  , 0.130586624146  , 0.079674273729  , 0.093913055956  , 0.233035340905  , 0.19620962441  , 0.118840128183  , 0.068143993616  , 0.044293742627  , 0.125972822309  , 0.189919188619  , 0.335354566574  , 0.393562167883  , 0.477793157101  , 0.522328913212  , 0.266776800156  , 0.028996102512  , 0.005634619854  , 0.071199193597  , 0.152988448739  , 0.228656366467  , 0.277722805738  , 0.266872495413  , 0.384347617626  , 0.481787264347  , 0.571941077709  , 0.545410871506  , 0.577119171619  , 0.655516684055  , 0.768857598305  , 0.750548601151  , 0.613542616367  , 0.384018778801  , 0.20226585865  , 0.131541371346  , 0.176915347576  , 0.183363601565  , 0.130600690842  , 0.117463946342  , 0.132244750857  , 0.15554857254  , 0.145803421736  , 0.121591418982  , 0.170665279031  , 0.222775653005  , 0.29403886199  , 0.447428792715  , 0.453929781914  , 0.379995375872  , 0.210654392838  , 0.100600376725  , 0.122230380774  , 0.139850541949  , 0.192416056991  , 0.194885328412  , 0.247583881021  , 0.216103151441  , 0.270656168461  , 0.389899522066  , 0.481592357159  , 0.544260621071  , 0.644115328789  , 0.693923354149  , 0.718834221363  , 0.774060130119  , 0.788529157639  , 0.69770014286  , 0.434934735298  , 0.222520321608  , 0.118133150041  , 0.132620662451  , 0.147897183895  , 0.220049068332  , 0.336402177811  , 0.33595725894  , 0.382014095783  , 0.508594453335  , 0.547545790672  , 0.616547167301  , 0.658706307411  , 0.680583059788  , 0.738801002502  , 0.855242550373  , 0.969635725021  , 0.866685032845  , 0.539274573326  , 0.262256115675  , 0.17875893414  , 0.11181910336  , 0.141331270337  , 0.332605540752  , 0.412129044533  , 0.333818763494  , 0.381493717432  , 0.528812646866  , 0.586541354656  , 0.642444491386  , 0.746417582035  , 0.835284769535  , 0.80287116766  , 0.903049707413  , 0.911520302296  , 0.925923228264  , 0.920928061008  , 0.909367978573  , 0.943477332592  , 0.941892683506  , 0.958795785904  , 0.962365806103 );
                        kernels[10] = compute_kernel(x,   0.139948248863  , 0.219478338957  , 0.254343569279  , 0.234828084707  , 0.299335181713  , 0.355283915997  , 0.371885716915  , 0.443238556385  , 0.592391550541  , 0.704408586025  , 0.715656459332  , 0.567948043346  , 0.269755363464  , 0.121987678111  , 0.0798413679  , 0.180564418435  , 0.193872794509  , 0.185802608728  , 0.174117133021  , 0.216186821461  , 0.326454043388  , 0.373624324799  , 0.419656276703  , 0.575210690498  , 0.716211795807  , 0.726219475269  , 0.565347969532  , 0.253895848989  , 0.095450252295  , 0.044776909053  , 0.112819828093  , 0.17252458632  , 0.171259179711  , 0.150674656034  , 0.224835678935  , 0.329828768969  , 0.388606488705  , 0.496050417423  , 0.645112335682  , 0.76144272089  , 0.851913690567  , 0.851968824863  , 0.622755408287  , 0.225336000323  , 0.079779148102  , 0.10019877553  , 0.162086442113  , 0.171079203486  , 0.150120258331  , 0.181475490332  , 0.231755971909  , 0.288259446621  , 0.396326810122  , 0.53190267086  , 0.664493739605  , 0.746083557606  , 0.730744242668  , 0.481462091208  , 0.175013616681  , 0.077377274632  , 0.112186126411  , 0.15715277195  , 0.132374599576  , 0.164611175656  , 0.193564370275  , 0.296364277601  , 0.368297338486  , 0.46663326025  , 0.58828151226  , 0.687732458115  , 0.839010953903  , 0.757870972157  , 0.411370754242  , 0.135554462671  , 0.063036464155  , 0.132918074727  , 0.198007911444  , 0.192368388176  , 0.165630161762  , 0.217064484954  , 0.296190142632  , 0.403053641319  , 0.494204550982  , 0.632126808167  , 0.834283590317  , 0.912843644619  , 0.664288341999  , 0.238843038678  , 0.058779165149  , 0.067788913846  , 0.175584957004  , 0.20906484127  , 0.152837455273  , 0.215230301023  , 0.294009774923  , 0.387585818768  , 0.442268610001  , 0.502478539944  , 0.65169608593  , 0.843560039997  , 0.945682704449  , 0.777940988541  , 0.379581749439  , 0.087920449674  , 0.012146234512  , 0.007149703801  , -0.008615201339  , -0.037267364562  , -0.009911188856  , -0.002887776121  , -0.015572094359  , 5.9215352e-05  , 0.018118031323 );
                        kernels[11] = compute_kernel(x,   0.118711702526  , 0.136185079813  , 0.173270657659  , 0.209335952997  , 0.241818457842  , 0.286842882633  , 0.387375593185  , 0.53196811676  , 0.693294644356  , 0.774548411369  , 0.756406128407  , 0.621345221996  , 0.298932313919  , 0.071089483798  , 0.036182917655  , 0.111973464489  , 0.157121554017  , 0.165604516864  , 0.156519755721  , 0.213703200221  , 0.316640973091  , 0.431363642216  , 0.535107553005  , 0.671613693237  , 0.789609789848  , 0.788941025734  , 0.603942871094  , 0.211967483163  , 0.005316420458  , -0.000832034973  , 0.083557061851  , 0.118468776345  , 0.102735154331  , 0.094189956784  , 0.173098951578  , 0.284653633833  , 0.352016568184  , 0.450338304043  , 0.591488063335  , 0.712135255337  , 0.748704612255  , 0.586512327194  , 0.23346182704  , -0.022099627182  , -0.002414090559  , 0.0900445804  , 0.109725654125  , 0.102914437652  , 0.087162405252  , 0.126072511077  , 0.200275585055  , 0.251904457808  , 0.319340765476  , 0.457384169102  , 0.612226009369  , 0.611914992332  , 0.446499824524  , 0.14043469727  , -0.036760263145  , 0.015020227991  , 0.102540567517  , 0.113349750638  , 0.074760809541  , 0.092464059591  , 0.12538690865  , 0.225878641009  , 0.255177676678  , 0.297275662422  , 0.423145592213  , 0.525231301785  , 0.615976929665  , 0.459198772907  , 0.160184323788  , 0.00615415629  , -0.007558211684  , 0.06126613915  , 0.108747333288  , 0.114750176668  , 0.073545366526  , 0.127907916903  , 0.207759320736  , 0.23953025043  , 0.28760766983  , 0.371875166893  , 0.477467566729  , 0.449661761522  , 0.326346457005  , 0.103307344019  , 0.037247426808  , 0.080102294683  , 0.113481588662  , 0.106158897281  , 0.083852253854  , 0.137301489711  , 0.189222469926  , 0.281344145536  , 0.357058793306  , 0.424877792597  , 0.524027109146  , 0.511190354824  , 0.368649333715  , 0.188804447651  , 0.04138378799  , 0.06618026644  , 0.513378918171  , 0.239973306656  , 0.038493104279  , 0.031157827005  , 0.087706916034  , 0.105319418013  , 0.11732956022  , 0.157083958387  , 0.223250880837 );
                        kernels[12] = compute_kernel(x,   0.560399651527  , 0.534689247608  , 0.529921650887  , 0.58795940876  , 0.664356350899  , 0.718986093998  , 0.64993429184  , 0.486357033253  , 0.472622215748  , 0.41153010726  , 0.512214124203  , 0.676713168621  , 0.755115449429  , 0.800584793091  , 0.840612351894  , 0.751660466194  , 0.553120434284  , 0.334377586842  , 0.205787152052  , 0.222637981176  , 0.301941752434  , 0.42208686471  , 0.428270787001  , 0.40516486764  , 0.393331736326  , 0.439692139626  , 0.520434617996  , 0.644258439541  , 0.738262414932  , 0.82380348444  , 0.887888073921  , 0.913634836674  , 0.771881461143  , 0.480689913034  , 0.273412108421  , 0.188269838691  , 0.273530632257  , 0.337715387344  , 0.423887014389  , 0.443788707256  , 0.398648262024  , 0.433920294046  , 0.487084209919  , 0.593786895275  , 0.651252985001  , 0.695337951183  , 0.764603257179  , 0.85841858387  , 0.923621118069  , 0.864936888218  , 0.611620545387  , 0.390966176987  , 0.263225585222  , 0.267899960279  , 0.384464204311  , 0.444163948298  , 0.475871920586  , 0.511921346188  , 0.477245688438  , 0.420042455196  , 0.520005822182  , 0.66427898407  , 0.76024544239  , 0.797884583473  , 0.891428828239  , 0.940729856491  , 0.927266299725  , 0.806238472462  , 0.628707528114  , 0.477433621883  , 0.250349760056  , 0.196273446083  , 0.325614690781  , 0.410203278065  , 0.444887876511  , 0.432229071856  , 0.418961942196  , 0.449113607407  , 0.539297819138  , 0.629850268364  , 0.643458425999  , 0.753945469856  , 0.848237335682  , 0.934041202068  , 0.854254484177  , 0.725984334946  , 0.477103561163  , 0.28071564436  , 0.201719924808  , 0.18353818357  , 0.198670804501  , 0.178772106767  , 0.133360400796  , 0.063892431557  , 0.062987707555  , 0.145884007215  , 0.186391532421  , 0.169051170349  , 0.222787946463  , 0.246020957828  , 0.262289345264  , 0.28649070859  , 0.286275267601  , 0.230830654502  , 0.173733994365  , 0.316219836473  , 0.427998334169  , 0.457447618246  , 0.509478271008  , 0.624429345131  , 0.772125840187  , 0.896910130978  , 0.950264394283 );
                        kernels[13] = compute_kernel(x,   0.194713652134  , 0.211159974337  , 0.244091853499  , 0.265598356724  , 0.31876540184  , 0.378214538097  , 0.440009027719  , 0.523498296738  , 0.546051681042  , 0.480961292982  , 0.311209082603  , 0.165823161602  , 0.028091292828  , 0.015475873835  , 0.108401037753  , 0.149665459991  , 0.163327202201  , 0.14339248836  , 0.133849367499  , 0.177958279848  , 0.239202171564  , 0.302491635084  , 0.35309368372  , 0.442078113556  , 0.492279917002  , 0.376346588135  , 0.195754244924  , 0.00715302676  , -0.050244767219  , -0.007434128784  , 0.076651401818  , 0.127022266388  , 0.122526265681  , 0.082493968308  , 0.113004587591  , 0.1756978333  , 0.223689630628  , 0.271839499474  , 0.326829969883  , 0.418154865503  , 0.433567076921  , 0.330744504929  , 0.130531474948  , 0.005960224196  , -0.008949574083  , 0.023207977414  , 0.108214452863  , 0.154834344983  , 0.143979728222  , 0.120853990316  , 0.149504616857  , 0.19518828392  , 0.229991897941  , 0.292926490307  , 0.362733304501  , 0.377713948488  , 0.388274520636  , 0.376437455416  , 0.271190464497  , 0.116248957813  , 0.042393572628  , 0.018380420282  , 0.068694457412  , 0.167287290096  , 0.188421934843  , 0.158163428307  , 0.133791446686  , 0.138604149222  , 0.205497950315  , 0.28965139389  , 0.339743882418  , 0.341093361378  , 0.33816280961  , 0.394076615572  , 0.398050576448  , 0.327834278345  , 0.198570564389  , 0.043616935611  , -0.017069412395  , 0.027152907103  , 0.126082330942  , 0.168630555272  , 0.155918285251  , 0.097329668701  , 0.087516859174  , 0.12758949399  , 0.224659487605  , 0.27812859416  , 0.289695709944  , 0.360144555569  , 0.426571130753  , 0.335696488619  , 0.214213266969  , 0.133554548025  , 0.038761086762  , 0.028983838856  , 0.105716183782  , 0.129334896803  , 0.124285168946  , 0.135720714927  , 0.102684691548  , 0.122225552797  , 0.159160703421  , 0.252138733864  , 0.107515782118  , 0.176447331905  , 0.200027838349  , 0.192035570741  , 0.148801445961  , 0.182069957256  , 0.222586736083  , 0.259807229042  , 0.286449372768 );
                        kernels[14] = compute_kernel(x,   0.326090067625  , 0.36895865202  , 0.362730920315  , 0.396622300148  , 0.484327584505  , 0.546053826809  , 0.670247673988  , 0.818470776081  , 0.768563866615  , 0.666982889175  , 0.45430496335  , 0.159202218056  , 0.006396990269  , 0.043925326318  , 0.135996878147  , 0.223178118467  , 0.254158258438  , 0.319902837276  , 0.39348167181  , 0.468802303076  , 0.589083731174  , 0.625751972198  , 0.665867507458  , 0.753036797047  , 0.861500680447  , 0.847172021866  , 0.6441578269  , 0.41654086113  , 0.13895380497  , 0.016257258132  , 0.064815871418  , 0.166889697313  , 0.259757399559  , 0.279734015465  , 0.326290607452  , 0.436052322388  , 0.547868907452  , 0.600524365902  , 0.687408685684  , 0.749062478542  , 0.830939173698  , 0.946941077709  , 0.948589742184  , 0.663375020027  , 0.309992820024  , 0.126074820757  , 0.021989166737  , 0.081622995436  , 0.246805027127  , 0.332177996635  , 0.286737620831  , 0.296887695789  , 0.419129878283  , 0.552685916424  , 0.618143081665  , 0.698537051678  , 0.762463331223  , 0.80819439888  , 0.946101367474  , 0.973441183567  , 0.607918679714  , 0.161118209362  , -0.018947053701  , 0.011236039922  , 0.107924580574  , 0.209428489208  , 0.239427000284  , 0.254640102386  , 0.29066953063  , 0.441605269909  , 0.615699529648  , 0.697600364685  , 0.727835595608  , 0.763245761395  , 0.841551423073  , 0.931703984737  , 0.98204356432  , 0.769670009613  , 0.30917519331  , 0.03881091252  , 0.00219541043  , 0.082424916327  , 0.208066269755  , 0.285816222429  , 0.342998892069  , 0.382760614157  , 0.506966173649  , 0.617728114128  , 0.706293582916  , 0.740533828735  , 0.764664053917  , 0.873895645142  , 0.965301454067  , 0.965361297131  , 0.771594405174  , 0.357269257307  , 0.070954814553  , 0.024073284119  , 0.138810068369  , 0.234479352832  , 0.232487827539  , 0.287881135941  , 0.355937242508  , 0.488113254309  , 0.047123648226  , 0.027358066291  , 0.056723617017  , 0.179073706269  , 0.28489869833  , 0.36866414547  , 0.442965596914  , 0.524967849255  , 0.612670242786 );
                        kernels[15] = compute_kernel(x,   0.323994398117  , 0.28729891777  , 0.284960150719  , 0.408511281013  , 0.522231578827  , 0.571216464043  , 0.612265586853  , 0.618228852749  , 0.455326676369  , 0.230837956071  , 0.076172828674  , 0.045681424439  , 0.085568577051  , 0.154147237539  , 0.169107973576  , 0.150917693973  , 0.137370467186  , 0.234352186322  , 0.324556976557  , 0.415355294943  , 0.523556888103  , 0.639057576656  , 0.735317707062  , 0.739612042904  , 0.647518694401  , 0.432673484087  , 0.161665707827  , -0.002032466233  , 0.019388329238  , 0.125186622143  , 0.181701391935  , 0.153082206845  , 0.133748039603  , 0.163797780871  , 0.236375153065  , 0.310435593128  , 0.382912576199  , 0.489860862494  , 0.632381856441  , 0.762882888317  , 0.745733618736  , 0.546749651432  , 0.283981263638  , 0.09340249002  , 0.018157901242  , 0.07561147958  , 0.141578838229  , 0.140406116843  , 0.141427353024  , 0.164865136147  , 0.184347331524  , 0.223914518952  , 0.293502002954  , 0.398540526628  , 0.50689291954  , 0.568680405617  , 0.64189940691  , 0.733540892601  , 0.779024481773  , 0.619381904602  , 0.329673528671  , 0.088291697204  , -0.010708055459  , 0.064045131207  , 0.154770061374  , 0.185794815421  , 0.162679597735  , 0.125834956765  , 0.141876637936  , 0.240983650088  , 0.358651518822  , 0.429309844971  , 0.464309692383  , 0.520186364651  , 0.61572265625  , 0.758690953255  , 0.833421945572  , 0.655872941017  , 0.253627687693  , 0.031746763736  , 0.02311552316  , 0.085331663489  , 0.185485035181  , 0.171712100506  , 0.123655170202  , 0.084944054484  , 0.197190463543  , 0.339202225208  , 0.429087072611  , 0.498101890087  , 0.586508393288  , 0.714320003986  , 0.846929371357  , 0.982938945293  , 0.922079503536  , 0.527378797531  , 0.167871788144  , -0.011515964754  , 0.024973992258  , 0.141410812736  , 0.164661198854  , 0.175953239202  , 0.124746903777  , 0.190377801657  , 0.026494398713  , 0.078806750476  , 0.108618445694  , 0.133998498321  , 0.147401407361  , 0.192901983857  , 0.292468637228  , 0.397853404284  , 0.500990331173 );
                        kernels[16] = compute_kernel(x,   0.270089924335  , 0.199354022741  , 0.197641178966  , 0.174412339926  , 0.174660146236  , 0.180924803019  , 0.253450244665  , 0.371053516865  , 0.46828275919  , 0.612534403801  , 0.704869449139  , 0.767774999142  , 0.674669027328  , 0.497807711363  , 0.37118268013  , 0.293677866459  , 0.242420986295  , 0.226651504636  , 0.211685344577  , 0.185147613287  , 0.194658920169  , 0.25506901741  , 0.273154824972  , 0.314198970795  , 0.353834539652  , 0.34826695919  , 0.369900822639  , 0.316535353661  , 0.278466075659  , 0.193339794874  , 0.136565238237  , 0.156028911471  , 0.178510025144  , 0.199501082301  , 0.207495003939  , 0.209512680769  , 0.21252708137  , 0.241565406322  , 0.244033381343  , 0.253466516733  , 0.230688363314  , 0.243676155806  , 0.270996779203  , 0.257478684187  , 0.220619216561  , 0.2075560987  , 0.219422593713  , 0.247976019979  , 0.263466268778  , 0.196273639798  , 0.17796061933  , 0.170110180974  , 0.160368382931  , 0.155202716589  , 0.179398521781  , 0.183526366949  , 0.200937837362  , 0.195924207568  , 0.182235598564  , 0.226774826646  , 0.237407892942  , 0.267062187195  , 0.296921700239  , 0.319160699844  , 0.333722829819  , 0.300397068262  , 0.231082975864  , 0.158093854785  , 0.162492364645  , 0.199026733637  , 0.223926186562  , 0.222407191992  , 0.160951554775  , 0.174999237061  , 0.160285681486  , 0.142898395658  , 0.145686641335  , 0.158872336149  , 0.196771323681  , 0.204894438386  , 0.22557502985  , 0.226974517107  , 0.254897087812  , 0.281981229782  , 0.251060187817  , 0.184126317501  , 0.178886443377  , 0.180035337806  , 0.152843162417  , 0.17531324923  , 0.199294775724  , 0.159347251058  , 0.119727283716  , 0.117942467332  , 0.150169968605  , 0.135233283043  , 0.149716481566  , 0.178598359227  , 0.204264804721  , 0.218173220754  , 0.189786374569  , 0.185594290495  , 0.114800475538  , 0.088085673749  , 0.268439769745  , 0.292568445206  , 0.318898946047  , 0.32345020771  , 0.348010927439  , 0.365013092756  , 0.306511074305  , 0.258723139763  , 0.200080499053 );
                        kernels[17] = compute_kernel(x,   0.345504283905  , 0.191230535507  , 0.099059231579  , 0.161826148629  , 0.220357209444  , 0.226624429226  , 0.239019095898  , 0.306411355734  , 0.413663804531  , 0.43249052763  , 0.438621222973  , 0.489048570395  , 0.587633788586  , 0.708539783955  , 0.675967752934  , 0.466384291649  , 0.231668636203  , 0.07595140487  , 0.055832128972  , 0.131434351206  , 0.163097053766  , 0.193266808987  , 0.212314710021  , 0.310108631849  , 0.334085911512  , 0.376629501581  , 0.457415640354  , 0.590177595615  , 0.69607758522  , 0.714900135994  , 0.580754041672  , 0.291271358728  , 0.065097972751  , 0.08220962435  , 0.193447470665  , 0.28036570549  , 0.267131567001  , 0.273556530476  , 0.312428951263  , 0.395777374506  , 0.47374984622  , 0.51688849926  , 0.569594919682  , 0.680917024612  , 0.801046609879  , 0.717091023922  , 0.428955584764  , 0.134462818503  , 0.097024440765  , 0.134473279119  , 0.233402743936  , 0.247434794903  , 0.259077876806  , 0.286286920309  , 0.302527397871  , 0.381374835968  , 0.46327200532  , 0.534412026405  , 0.634210526943  , 0.750324130058  , 0.623873412609  , 0.276197224855  , 0.038997575641  , 0.093773126602  , 0.194393917918  , 0.300862938166  , 0.32448643446  , 0.295667588711  , 0.289781689644  , 0.368256866932  , 0.473092824221  , 0.553660809994  , 0.611839652061  , 0.7108913064  , 0.853834152222  , 0.75415378809  , 0.328189253807  , 0.006116643548  , 0.023615270853  , 0.194389820099  , 0.376838207245  , 0.409643054008  , 0.351699978113  , 0.333442747593  , 0.426127880812  , 0.544120311737  , 0.635582864285  , 0.725432157516  , 0.834933996201  , 0.954127013683  , 0.92451441288  , 0.632312953472  , 0.208024322987  , 0.065721042454  , 0.129582569003  , 0.273242652416  , 0.358383655548  , 0.37295410037  , 0.359045416117  , 0.343923330307  , 0.429693102837  , 0.555410265923  , 0.635341286659  , 0.698783576488  , 0.493227422237  , 0.60951256752  , 0.713812947273  , 0.863412678242  , 0.94510614872  , 0.736588656902  , 0.32156047225  , 0.077371887863  , 0.106485411525 );
                        kernels[18] = compute_kernel(x,   0.784555792809  , 0.81671577692  , 0.740334033966  , 0.46996769309  , 0.210067182779  , 0.091811530292  , 0.167919367552  , 0.251749575138  , 0.281904518604  , 0.255547314882  , 0.232164740562  , 0.307035148144  , 0.397547960281  , 0.499451011419  , 0.577354729176  , 0.681670129299  , 0.886034607887  , 1.074370861053  , 0.938792645931  , 0.528839528561  , 0.174416169524  , 0.079889968038  , 0.218229576945  , 0.33100092411  , 0.350332468748  , 0.308007568121  , 0.30441391468  , 0.312623053789  , 0.395144939423  , 0.516868412495  , 0.668361067772  , 0.789821445942  , 0.78699606657  , 0.698067128658  , 0.535360455513  , 0.301189750433  , 0.134534418583  , 0.185710310936  , 0.257828176022  , 0.324869692326  , 0.299922227859  , 0.252320349216  , 0.249798372388  , 0.305798768997  , 0.481422781944  , 0.6353957057  , 0.697355747223  , 0.549799442291  , 0.346781909466  , 0.16373847425  , 0.162003293633  , 0.139513015747  , 0.224755957723  , 0.30149140954  , 0.287522494793  , 0.266499638557  , 0.262243717909  , 0.338456660509  , 0.44232326746  , 0.597530841827  , 0.582541704178  , 0.466654151678  , 0.334430426359  , 0.205702766776  , 0.141534328461  , 0.175229460001  , 0.173671990633  , 0.168520092964  , 0.228671684861  , 0.287195563316  , 0.269996672869  , 0.333986490965  , 0.424757778645  , 0.487290263176  , 0.537270665169  , 0.4413164258  , 0.246763363481  , 0.147242158651  , 0.132867559791  , 0.169628977776  , 0.280897498131  , 0.303250133991  , 0.289739966393  , 0.288261771202  , 0.327311009169  , 0.407925188541  , 0.534862160683  , 0.611750364304  , 0.477286785841  , 0.271836549044  , 0.173429936171  , 0.166327729821  , 0.156778380275  , 0.212947234511  , 0.254378408194  , 0.233295440674  , 0.186198011041  , 0.244601786137  , 0.351677685976  , 0.453907608986  , 0.549524486065  , 0.567802727222  , 0.471274793148  , 0.240526020527  , 0.335230410099  , 0.202808082104  , 0.056895665824  , 0.046217467636  , 0.104671947658  , 0.144841223955  , 0.121898278594  , 0.131735920906  , 0.124846324325 );
                        kernels[19] = compute_kernel(x,   0.858705639839  , 0.759329915047  , 0.604998350143  , 0.493590116501  , 0.466378301382  , 0.471040070057  , 0.536965489388  , 0.607993125916  , 0.689804434776  , 0.651284337044  , 0.631866812706  , 0.695035159588  , 0.778619766235  , 0.820874452591  , 0.854256093502  , 0.911548435688  , 0.955552458763  , 0.926919698715  , 0.744766235352  , 0.535080134869  , 0.427166968584  , 0.432456165552  , 0.508116543293  , 0.588270187378  , 0.565600514412  , 0.552569031715  , 0.586876630783  , 0.719335258007  , 0.771420538425  , 0.80739325285  , 0.813219487667  , 0.867042958736  , 0.920271396637  , 0.950569748878  , 0.83052867651  , 0.629470229149  , 0.483645409346  , 0.433828413486  , 0.455409288406  , 0.555606603622  , 0.610216617584  , 0.616337358952  , 0.611491262913  , 0.669793844223  , 0.76132953167  , 0.817721009254  , 0.829192996025  , 0.837028443813  , 0.934394955635  , 0.951217472553  , 1.01209461689  , 0.90106678009  , 0.700026035309  , 0.506799697876  , 0.427319467068  , 0.47046649456  , 0.510906934738  , 0.569589614868  , 0.558925032616  , 0.591496706009  , 0.647572338581  , 0.707536935806  , 0.738296449184  , 0.770211160183  , 0.862500011921  , 0.927886426449  , 0.984749138355  , 0.930077850819  , 0.840706348419  , 0.687734663486  , 0.469822645187  , 0.392213016748  , 0.372372895479  , 0.368433743715  , 0.386087417603  , 0.444397479296  , 0.455724954605  , 0.449373364449  , 0.471128642559  , 0.481997847557  , 0.520671129227  , 0.554175972939  , 0.656007885933  , 0.767688810825  , 0.803458929062  , 0.808749854565  , 0.673767566681  , 0.525470137596  , 0.425056487322  , 0.433159291744  , 0.428600013256  , 0.439304828644  , 0.396702229977  , 0.33757391572  , 0.382813304663  , 0.427206248045  , 0.459411501884  , 0.420700550079  , 0.4298440516  , 0.403750479221  , 0.428250670433  , 0.44792380929  , 0.372496902943  , 0.317667424679  , 0.688264012337  , 0.802135586739  , 0.799808859825  , 0.851744890213  , 0.846243023872  , 0.574992597103  , 0.213649332523  , 0.049531675875  , 0.093302384019 );
                        kernels[20] = compute_kernel(x,   0.085721626878  , 0.137632280588  , 0.096409834921  , 0.128530412912  , 0.162583649158  , 0.160134345293  , 0.201565161347  , 0.291278362274  , 0.36455321312  , 0.390832424164  , 0.411263942719  , 0.26882827282  , 0.107427030802  , 0.0694392398  , 0.062984198332  , 0.123623579741  , 0.093935802579  , 0.034623928368  , 0.030919060111  , 0.061417978257  , 0.126885950565  , 0.18251003325  , 0.216344699264  , 0.273911058903  , 0.340387374163  , 0.361125528812  , 0.403203487396  , 0.482586890459  , 0.548605203629  , 0.690478861332  , 0.71628588438  , 0.697060286999  , 0.367602854967  , 0.19013479352  , 0.084853380919  , 0.033632233739  , 0.032829031348  , 0.069685965776  , 0.04463480413  , 0.019566604868  , 0.10369939357  , 0.103168047965  , 0.147085875273  , 0.229403659701  , 0.26439294219  , 0.295696020126  , 0.37131741643  , 0.447464764118  , 0.506387233734  , 0.416610687971  , 0.372948080301  , 0.298043519258  , 0.13557061553  , 0.030736856163  , 0.053739819676  , 0.08231536299  , 0.042725410312  , 0.064874701202  , 0.026339270175  , 0.06912086904  , 0.126990765333  , 0.201107650995  , 0.223975479603  , 0.255475819111  , 0.343317985535  , 0.411576330662  , 0.498006761074  , 0.568988621235  , 0.618118107319  , 0.531836926937  , 0.334753751755  , 0.148139148951  , 0.062715865672  , 0.070013061166  , 0.085973985493  , 0.09775698185  , 0.10040447861  , 0.06850849092  , 0.052344981581  , 0.081043094397  , 0.124796710908  , 0.206517398357  , 0.333117395639  , 0.420901477337  , 0.471879571676  , 0.545873522758  , 0.641544282436  , 0.756104052067  , 0.852723836899  , 0.892238736153  , 0.758678734303  , 0.35343053937  , 0.044478468597  , -0.050978772342  , 0.048794087023  , 0.123128347099  , 0.124530315399  , 0.112273201346  , 0.098931565881  , 0.109013333917  , 0.145564228296  , 0.232728332281  , 0.324851810932  , 0.547561109066  , 0.568876028061  , 0.640954077244  , 0.713249504566  , 0.82763761282  , 0.899260044098  , 0.987481176853  , 0.987053155899  , 0.837126851082  , 0.537779152393 );
                        kernels[21] = compute_kernel(x,   0.150716274977  , 0.158233523369  , 0.175760611892  , 0.176467105746  , 0.195094361901  , 0.228313148022  , 0.321218878031  , 0.440445572138  , 0.610913932323  , 0.733702123165  , 0.854482352734  , 0.913217484951  , 0.794887304306  , 0.3788395226  , 0.061502151191  , 0.02556383796  , 0.125124394894  , 0.231133505702  , 0.205403849483  , 0.136558175087  , 0.10962728411  , 0.176649838686  , 0.323087453842  , 0.48754760623  , 0.617983102798  , 0.737454712391  , 0.846441745758  , 0.881844341755  , 0.708712518215  , 0.298281282187  , 0.038093440235  , 0.003824915737  , 0.068016655743  , 0.193832084537  , 0.23845140636  , 0.20523005724  , 0.177416622639  , 0.266671061516  , 0.395350396633  , 0.529525399208  , 0.659536063671  , 0.77102959156  , 0.864276468754  , 0.898273468018  , 0.797654807568  , 0.446124196053  , 0.082890436053  , -0.045249469578  , 0.02835768275  , 0.159714579582  , 0.25193721056  , 0.228247970343  , 0.229232102633  , 0.265436470509  , 0.382631719112  , 0.537979781628  , 0.655065953732  , 0.722127199173  , 0.841427326202  , 0.968142271042  , 0.768230676651  , 0.359843581915  , 0.045843757689  , -0.005357962102  , 0.068404212594  , 0.188614457846  , 0.22258117795  , 0.194767683744  , 0.184310361743  , 0.236666694283  , 0.385676324368  , 0.496987819672  , 0.595715641975  , 0.685088932514  , 0.83942347765  , 0.890650570393  , 0.580504953861  , 0.248525410891  , 0.065343588591  , 0.049729611725  , 0.144964754581  , 0.229927763343  , 0.211681872606  , 0.169932544231  , 0.236454278231  , 0.313992679119  , 0.4036642313  , 0.529417276382  , 0.647889256477  , 0.747857928276  , 0.838529109955  , 0.814480721951  , 0.505137145519  , 0.195394828916  , 0.078442491591  , 0.11828032881  , 0.193654745817  , 0.199138075113  , 0.192217200994  , 0.182556629181  , 0.154272049665  , 0.226995646954  , 0.373093038797  , 0.521704077721  , 0.195431321859  , 0.267826318741  , 0.347436994314  , 0.445257931948  , 0.534074068069  , 0.472859025002  , 0.313127785921  , 0.107823051512  , -0.035520806909 );
                        kernels[22] = compute_kernel(x,   0.098050251603  , 0.070500798523  , 0.144396334887  , 0.234870404005  , 0.254748374224  , 0.26421135664  , 0.244269728661  , 0.270233154297  , 0.244092687964  , 0.293882161379  , 0.396604686975  , 0.449603289366  , 0.467184901237  , 0.464389652014  , 0.349100589752  , 0.201518237591  , 0.150290578604  , 0.15680091083  , 0.103412151337  , 0.056248415262  , 0.037525974214  , 0.035819411278  , 0.045154150575  , 0.048852317035  , 0.070533216  , 0.112086027861  , 0.183439567685  , 0.313416153193  , 0.360335201025  , 0.37704923749  , 0.454020470381  , 0.583656907082  , 0.552144050598  , 0.516788840294  , 0.382512480021  , 0.254408985376  , 0.175750255585  , 0.157194942236  , 0.249479934573  , 0.244324460626  , 0.215754657984  , 0.17881628871  , 0.199164286256  , 0.241522505879  , 0.333659559488  , 0.426560938358  , 0.494635432959  , 0.5594009161  , 0.631142258644  , 0.690869987011  , 0.694777488708  , 0.802872955799  , 0.862538874149  , 0.849553704262  , 0.598167300224  , 0.396339893341  , 0.283577263355  , 0.196413904428  , 0.201186805964  , 0.201735511422  , 0.240451514721  , 0.272087186575  , 0.333114326  , 0.336971580982  , 0.299703806639  , 0.340556561947  , 0.457447916269  , 0.567872703075  , 0.63605928421  , 0.676000952721  , 0.721401333809  , 0.795181810856  , 0.807665646076  , 0.593402504921  , 0.207700863481  , 0.070931784809  , 0.082407154143  , 0.15195338428  , 0.225370302796  , 0.260798156261  , 0.227094918489  , 0.242091909051  , 0.252930432558  , 0.330979079008  , 0.392178505659  , 0.488474607468  , 0.597847759724  , 0.674056053162  , 0.759155988693  , 0.845058381557  , 0.802469789982  , 0.541677296162  , 0.316998898983  , 0.172835513949  , 0.138125732541  , 0.179751038551  , 0.231864959002  , 0.230681583285  , 0.272080540657  , 0.305827438831  , 0.315026521683  , 0.349343776703  , 0.393361866474  , 0.492521286011  , 0.056862920523  , 0.074269220233  , 0.119178771973  , 0.21845677495  , 0.366806775331  , 0.483152836561  , 0.620494186878  , 0.702628493309  , 0.819430053234 );
                        kernels[23] = compute_kernel(x,   0.450783401728  , 0.48046952486  , 0.365654826164  , 0.205677360296  , 0.091851428151  , 0.068999692798  , 0.087588980794  , 0.151513189077  , 0.1985219419  , 0.237054660916  , 0.286186188459  , 0.269072890282  , 0.304059773684  , 0.378494888544  , 0.45488011837  , 0.529787063599  , 0.493835508823  , 0.295725762844  , 0.06222275272  , 0.010034810752  , 0.057970903814  , 0.134220376611  , 0.186045199633  , 0.190622612834  , 0.200482398272  , 0.21915820241  , 0.286174714565  , 0.354259192944  , 0.413687765598  , 0.582913339138  , 0.691758275032  , 0.722481787205  , 0.527434706688  , 0.255383759737  , 0.015327524394  , -0.033140748739  , 0.080194287002  , 0.175003826618  , 0.241037741303  , 0.222173914313  , 0.230247691274  , 0.294531106949  , 0.384533107281  , 0.495882093906  , 0.550297319889  , 0.61122995615  , 0.705759763718  , 0.831175863743  , 0.903014481068  , 0.747950017452  , 0.379780322313  , 0.095736503601  , 0.056197438389  , 0.092529766262  , 0.166419044137  , 0.236236423254  , 0.206882759929  , 0.197397127748  , 0.261703491211  , 0.349229454994  , 0.442219316959  , 0.564768016338  , 0.692253470421  , 0.788138270378  , 0.878231883049  , 0.987299799919  , 0.886717677116  , 0.627273857594  , 0.34417450428  , 0.155617192388  , 0.048092775047  , 0.080122843385  , 0.217773288488  , 0.236649781466  , 0.266458809376  , 0.289356559515  , 0.373330295086  , 0.447914719582  , 0.505070090294  , 0.623695552349  , 0.706281840801  , 0.795798838139  , 0.754600346088  , 0.546453118324  , 0.237370401621  , 0.052225835621  , 0.040820680559  , 0.13460560143  , 0.270206421614  , 0.291425555944  , 0.270759731531  , 0.318347960711  , 0.391600310802  , 0.433283269405  , 0.578687548637  , 0.730803728104  , 0.81172734499  , 0.706680893898  , 0.519405424595  , 0.296773970127  , 0.043151896447  , 0.023777570575  , 0.113235361874  , 0.24309925735  , -0.001167241484  , 0.086468718946  , 0.162217542529  , 0.206486180425  , 0.209354117513  , 0.265263348818  , 0.360692948103  , 0.417330503464  , 0.538566529751 );
                        kernels[24] = compute_kernel(x,   0.486882776022  , 0.087788879871  , 0.079527720809  , 0.260603278875  , 0.366874665022  , 0.336267888546  , 0.26727861166  , 0.318593382835  , 0.442375540733  , 0.545426130295  , 0.669523656368  , 0.733496427536  , 0.909952223301  , 1.005351185799  , 0.765274345875  , 0.246920853853  , 0.041914641857  , 0.103832766414  , 0.234852492809  , 0.333635210991  , 0.392419248819  , 0.436729103327  , 0.504228889942  , 0.606829226017  , 0.6638276577  , 0.76825594902  , 0.824054896832  , 0.815679967403  , 0.529000520706  , 0.296270549297  , 0.182151794434  , 0.229698076844  , 0.320527225733  , 0.472931176424  , 0.459447801113  , 0.435153394938  , 0.506388962269  , 0.616733491421  , 0.749632239342  , 0.811191022396  , 0.783725261688  , 0.439884483814  , 0.180280253291  , 0.143861725926  , 0.207643911242  , 0.340497434139  , 0.390116661787  , 0.397651493549  , 0.438266456127  , 0.504020631313  , 0.652758717537  , 0.807250320911  , 0.897787213326  , 0.798789620399  , 0.425820827484  , 0.165342241526  , 0.19463929534  , 0.339335769415  , 0.472541570663  , 0.414078950882  , 0.445599734783  , 0.497548252344  , 0.662342309952  , 0.795371770859  , 0.878098368645  , 0.947574079037  , 0.867754399776  , 0.478743076324  , 0.116069301963  , 0.032613575459  , 0.059497427195  , 0.262435078621  , 0.363711178303  , 0.36784017086  , 0.334477990866  , 0.478544205427  , 0.614785373211  , 0.695266544819  , 0.818402051926  , 0.845233261585  , 0.774181604385  , 0.4415153265  , 0.236358344555  , 0.022979833186  , 0.050631899387  , 0.137156680226  , 0.215220987797  , 0.301613807678  , 0.340959340334  , 0.491048276424  , 0.579842627048  , 0.634303629398  , 0.743962049484  , 0.904005587101  , 0.928182899952  , 0.918960154057  , 0.811604142189  , 0.435281783342  , 0.103596068919  , -0.016530528665  , 0.061727162451  , 0.242699950933  , 0.329984277487  , 0.328337460756  , -0.009839862585  , 0.007762491703  , -0.01503363438  , 0.111332185566  , 0.233416900039  , 0.15620996058  , 0.17082041502  , 0.274126857519  , 0.436129748821 );
                        kernels[25] = compute_kernel(x,   0.772698462009  , 0.890133678913  , 0.907638669014  , 0.728253185749  , 0.30606123805  , 0.068199314177  , 0.02574268356  , 0.083244927227  , 0.187212899327  , 0.16563205421  , 0.249934375286  , 0.300260007381  , 0.402408599854  , 0.465130239725  , 0.548746645451  , 0.628955662251  , 0.73115170002  , 0.861054778099  , 0.77385956049  , 0.493516474962  , 0.139741167426  , -0.033610135317  , 0.121069312096  , 0.255807191133  , 0.275226503611  , 0.216182157397  , 0.278382271528  , 0.414936900139  , 0.501812040806  , 0.592792570591  , 0.63933300972  , 0.713251948357  , 0.782215118408  , 0.833958506584  , 0.649891853333  , 0.231128633022  , -0.061549194157  , -0.058510832489  , 0.076589390635  , 0.144712150097  , 0.169145137072  , 0.231845676899  , 0.286320924759  , 0.412269532681  , 0.520253360271  , 0.625501930714  , 0.677299380302  , 0.812403321266  , 0.926026821136  , 0.901432156563  , 0.517162442207  , 0.032432720065  , -0.044564735144  , 0.029051110148  , 0.171814262867  , 0.286611199379  , 0.281026095152  , 0.251520812511  , 0.378337740898  , 0.575951576233  , 0.630545139313  , 0.639325022697  , 0.735280036926  , 0.878498494625  , 0.875316023827  , 0.761381745338  , 0.397373050451  , 0.049633625895  , -0.004929820541  , 0.121540129185  , 0.260622322559  , 0.281572788954  , 0.301458477974  , 0.370258331299  , 0.48007068038  , 0.551316022873  , 0.561844050884  , 0.686963021755  , 0.729117393494  , 0.762557625771  , 0.680068433285  , 0.372373342514  , 0.118317812681  , 0.073817886412  , 0.156283766031  , 0.22351655364  , 0.240850999951  , 0.257624804974  , 0.317220419645  , 0.441549509764  , 0.545335948467  , 0.609454870224  , 0.701934576035  , 0.763076543808  , 0.858725488186  , 0.709118723869  , 0.330947130919  , 0.059850078076  , 0.042961563915  , 0.143142938614  , 0.249932438135  , 0.356404513121  , 0.35245731473  , 0.391920238733  , 0.090558350086  , 0.133895367384  , 0.117896556854  , 0.192310884595  , 0.215487241745  , 0.257596433163  , 0.320018261671  , 0.377798765898  , 0.430312693119 );
                        kernels[26] = compute_kernel(x,   0.235635131598  , 0.254063904285  , 0.299295306206  , 0.260527908802  , 0.220420151949  , 0.187043100595  , 0.249964058399  , 0.381790429354  , 0.55125695467  , 0.608393967152  , 0.666685283184  , 0.680126070976  , 0.569786846638  , 0.26048836112  , 0.005056677386  , -0.015636779368  , 0.100630939007  , 0.279887676239  , 0.314089417458  , 0.236036971211  , 0.203514739871  , 0.282061874866  , 0.368518471718  , 0.447105109692  , 0.505681633949  , 0.581687450409  , 0.70898193121  , 0.760596930981  , 0.608922243118  , 0.259749233723  , 0.010663596913  , -0.014114256948  , 0.118007607758  , 0.267922312021  , 0.2735440135  , 0.236234515905  , 0.230771645904  , 0.303391933441  , 0.395335137844  , 0.460057914257  , 0.48514559865  , 0.505723178387  , 0.576007425785  , 0.698994278908  , 0.736852228642  , 0.553610384464  , 0.24339902401  , 0.08954127878  , 0.040114797652  , 0.120857298374  , 0.241143658757  , 0.263561517  , 0.239120602608  , 0.205835461617  , 0.239994764328  , 0.328471213579  , 0.443231552839  , 0.525115787983  , 0.608156204224  , 0.725548088551  , 0.798267960548  , 0.781447350979  , 0.518397808075  , 0.21009427309  , 0.058207474649  , 0.071589767933  , 0.199398547411  , 0.317876040936  , 0.293296396732  , 0.251066982746  , 0.257729768753  , 0.334839195013  , 0.408774793148  , 0.486736357212  , 0.606233119965  , 0.7488270998  , 0.859370708466  , 0.89240449667  , 0.674082934856  , 0.347529560328  , 0.137504935265  , 0.025595761836  , 0.03408710286  , 0.137988641858  , 0.276805579662  , 0.304320067167  , 0.290604561567  , 0.254873484373  , 0.348721176386  , 0.491941273212  , 0.636017560959  , 0.760174095631  , 0.801868498325  , 0.826521575451  , 0.915521025658  , 0.865063428879  , 0.678135871887  , 0.342273205519  , 0.063851587474  , -0.008028298616  , 0.094374746084  , 0.219593405724  , 0.284309923649  , 0.33022493124  , -0.002430025488  , 0.098531790078  , 0.184810638428  , 0.200488194823  , 0.199894234538  , 0.198059052229  , 0.255933523178  , 0.336671024561  , 0.486743688583 );
                        kernels[27] = compute_kernel(x,   0.739075660706  , 0.671704590321  , 0.412678450346  , 0.14244364202  , 0.092691853642  , 0.192303836346  , 0.260325491428  , 0.317826002836  , 0.338984966278  , 0.326115846634  , 0.386476695538  , 0.489167004824  , 0.586135625839  , 0.745193243027  , 0.897755920887  , 0.908161222935  , 0.637839376926  , 0.233911439776  , 0.081323198974  , 0.11355291307  , 0.221228644252  , 0.344706624746  , 0.357631504536  , 0.348903059959  , 0.347528427839  , 0.407528996468  , 0.501605212688  , 0.639145255089  , 0.776595830917  , 0.862596571445  , 0.66199529171  , 0.20464296639  , 0.072926707566  , 0.111653484404  , 0.196277081966  , 0.354953467846  , 0.411755442619  , 0.324097782373  , 0.331701278687  , 0.446342021227  , 0.575735151768  , 0.672368228436  , 0.744841039181  , 0.797669768333  , 0.643391907215  , 0.384874165058  , 0.164372399449  , 0.119080737233  , 0.222552016377  , 0.323662757874  , 0.356996178627  , 0.337453871965  , 0.31325635314  , 0.407138168812  , 0.519559383392  , 0.674459755421  , 0.835579514503  , 0.895542502403  , 0.72580653429  , 0.460640311241  , 0.253926694393  , 0.116345822811  , 0.154106900096  , 0.32980889082  , 0.392818957567  , 0.321917980909  , 0.291115403175  , 0.353989034891  , 0.466635644436  , 0.633597671986  , 0.724696338177  , 0.802360117435  , 0.87762349844  , 0.857571184635  , 0.638727843761  , 0.289259701967  , 0.058992560953  , 0.075988426805  , 0.227853909135  , 0.373554646969  , 0.374235719442  , 0.353524327278  , 0.365834385157  , 0.48430711031  , 0.598165273666  , 0.712520599365  , 0.82977193594  , 0.923899292946  , 0.892216801643  , 0.72915148735  , 0.477024614811  , 0.192744672298  , 0.127762198448  , 0.208050310612  , 0.355672687292  , 0.423756718636  , 0.413353174925  , 0.414514064789  , 0.421675354242  , 0.461973011494  , 0.538513958454  , 0.691770195961  , 0.80177795887  , 0.785892605782  , 0.012359499931  , 0.113362573087  , 0.159808948636  , 0.121065787971  , 0.113101251423  , 0.202007547021  , 0.368945449591  , 0.541296601295  , 0.670854449272 );
                        kernels[28] = compute_kernel(x,   0.84888869524  , 0.866841375828  , 0.656550168991  , 0.34494125843  , 0.262004673481  , 0.340920716524  , 0.412981241941  , 0.472080111504  , 0.510314285755  , 0.542877078056  , 0.61610263586  , 0.690908133984  , 0.757037401199  , 0.867846846581  , 0.958254158497  , 1.028295278549  , 0.808276414871  , 0.443809628487  , 0.281290560961  , 0.277886271477  , 0.370608896017  , 0.454957216978  , 0.49378657341  , 0.51819652319  , 0.572909474373  , 0.684939801693  , 0.788784921169  , 0.861979186535  , 0.910867750645  , 0.961937606335  , 0.752073585987  , 0.377306908369  , 0.280992329121  , 0.294388890266  , 0.320253908634  , 0.437593340874  , 0.492414534092  , 0.465844511986  , 0.555437266827  , 0.653949320316  , 0.761827230453  , 0.862274169922  , 0.900171816349  , 0.787992179394  , 0.54805713892  , 0.376487910748  , 0.274805098772  , 0.305873990059  , 0.386382043362  , 0.425548136234  , 0.464166164398  , 0.474929094315  , 0.512414395809  , 0.607167482376  , 0.689696192741  , 0.791522920132  , 0.832097709179  , 0.714051902294  , 0.433277666569  , 0.27956750989  , 0.328108727932  , 0.35679847002  , 0.395197063684  , 0.472604364157  , 0.48085975647  , 0.480520665646  , 0.53589618206  , 0.620199263096  , 0.724033951759  , 0.869734585285  , 0.896122574806  , 0.697954297066  , 0.430053949356  , 0.267839223146  , 0.259844601154  , 0.292768508196  , 0.368913829327  , 0.423328816891  , 0.376308858395  , 0.406642258167  , 0.45799857378  , 0.591575026512  , 0.667615354061  , 0.779933094978  , 0.884746134281  , 0.918507099152  , 0.88994127512  , 0.848437905312  , 0.703046560287  , 0.409366637468  , 0.214129731059  , 0.235520973802  , 0.368412494659  , 0.423718124628  , 0.460797399282  , 0.505971550941  , 0.531277179718  , 0.626428306103  , 0.710038721561  , 0.729104459286  , 0.794350862503  , 0.935303688049  , 0.997384607792  , 0.946618616581  , -0.009458437562  , 0.096025817096  , 0.182336494327  , 0.226607844234  , 0.278212726116  , 0.340190649033  , 0.408531934023  , 0.557639300823  , 0.711293697357 );
                        kernels[29] = compute_kernel(x,   0.336253643036  , 0.199900180101  , 0.167041674256  , 0.151180922985  , 0.221094027162  , 0.298202872276  , 0.296893566847  , 0.300790339708  , 0.369773089886  , 0.443714410067  , 0.602912306786  , 0.741030573845  , 0.902439951897  , 1.033520817757  , 0.911664605141  , 0.577568233013  , 0.151717215776  , -0.054090164602  , 0.054770193994  , 0.193252384663  , 0.238857507706  , 0.307591170073  , 0.325348824263  , 0.406227231026  , 0.485426485538  , 0.623491466045  , 0.754379093647  , 0.886321008205  , 1.007677793503  , 0.984471023083  , 0.576174139977  , 0.109538763762  , -0.006281366572  , 0.076579160988  , 0.181748658419  , 0.276788324118  , 0.310561239719  , 0.336455017328  , 0.463660001755  , 0.602772116661  , 0.722323536873  , 0.78464448452  , 0.822177827358  , 0.785561680794  , 0.550055742264  , 0.246874451637  , 0.045087091625  , 0.065835282207  , 0.207071259618  , 0.296808689833  , 0.374776721001  , 0.383730441332  , 0.386349260807  , 0.425848186016  , 0.528009355068  , 0.616491556168  , 0.705705463886  , 0.741643726826  , 0.450950920582  , 0.163027897477  , 0.130376562476  , 0.225228637457  , 0.278302639723  , 0.310679316521  , 0.36814391613  , 0.42534327507  , 0.535901844501  , 0.678664505482  , 0.716942071915  , 0.59795820713  , 0.34319704771  , 0.135595798492  , 0.06170835346  , 0.107724234462  , 0.204790949821  , 0.230304926634  , 0.218301907182  , 0.320821404457  , 0.403689742088  , 0.437239646912  , 0.50244474411  , 0.681490421295  , 0.781293570995  , 0.780990600586  , 0.493938058615  , 0.157777011395  , -0.012757625431  , 0.046429120004  , 0.161462202668  , 0.235542133451  , 0.240422904491  , 0.228402271867  , 0.302749633789  , 0.396709740162  , 0.571361660957  , 0.70315861702  , 0.75237929821  , 0.71404504776  , 0.526812016964  , 0.19088563323  , -0.018173586577  , 0.030868001282  , 0.1061078161  , 0.192571789026  , 0.016855336726  , 0.114422358572  , 0.184867933393  , 0.215891867876  , 0.281322062016  , 0.346750289202  , 0.422317057848  , 0.543757975101  , 0.710068464279 );
                        kernels[30] = compute_kernel(x,   0.911847174168  , 0.960063159466  , 0.919625639915  , 0.787682175636  , 0.497610777617  , 0.298819214106  , 0.259891062975  , 0.343707919121  , 0.482104241848  , 0.472849935293  , 0.457508176565  , 0.520088911057  , 0.546778917313  , 0.607450127602  , 0.681170165539  , 0.707317233086  , 0.756218135357  , 0.805189430714  , 0.781127631664  , 0.605602443218  , 0.379790186882  , 0.260803431273  , 0.219745904207  , 0.284058243036  , 0.297666788101  , 0.245546743274  , 0.200047671795  , 0.223101556301  , 0.296624392271  , 0.347358763218  , 0.379023939371  , 0.440599381924  , 0.585962891579  , 0.66715836525  , 0.718341231346  , 0.803017556667  , 0.758673012257  , 0.525471329689  , 0.335445582867  , 0.315122127533  , 0.303018331528  , 0.385949611664  , 0.429860532284  , 0.429208308458  , 0.434356659651  , 0.527535974979  , 0.618221521378  , 0.67756819725  , 0.75115776062  , 0.799547612667  , 0.869891941547  , 0.933523058891  , 0.968611717224  , 0.824508309364  , 0.476079940796  , 0.308779031038  , 0.282990157604  , 0.329130917788  , 0.411127567291  , 0.503216445446  , 0.526360690594  , 0.557165682316  , 0.665496706963  , 0.742866933346  , 0.758612453938  , 0.807312846184  , 0.886891961098  , 0.961608886719  , 0.945108354092  , 0.884645700455  , 0.645228147507  , 0.449938327074  , 0.361977219582  , 0.363298594952  , 0.424139142036  , 0.463322490454  , 0.490140616894  , 0.535439610481  , 0.592665910721  , 0.680606305599  , 0.782081902027  , 0.815556287766  , 0.829358160496  , 0.882986426353  , 0.943864583969  , 0.985008955002  , 0.944743692875  , 0.78756248951  , 0.538502573967  , 0.348126709461  , 0.281295776367  , 0.303995281458  , 0.316310703754  , 0.253923624754  , 0.250587493181  , 0.306386649609  , 0.33572191  , 0.346891611814  , 0.347813010216  , 0.314084470272  , 0.283572345972  , 0.353018403053  , 0.400167346001  , 0.292353123426  , 0.84096544981  , 0.933644294739  , 0.955177903175  , 0.768841207027  , 0.600982546806  , 0.477017104626  , 0.482610911131  , 0.561604678631  , 0.682230830193 );
                        kernels[31] = compute_kernel(x,   0.61242389679  , 0.466448783875  , 0.281761229038  , 0.115414507687  , 0.027157079428  , 0.078002929688  , 0.181900933385  , 0.236217707396  , 0.166999652982  , 0.18825815618  , 0.283798247576  , 0.406258136034  , 0.479878425598  , 0.546853601933  , 0.614547789097  , 0.673065721989  , 0.79368776083  , 0.871919572353  , 0.836926341057  , 0.58080804348  , 0.191315576434  , 0.004550351761  , 0.044319115579  , 0.099558249116  , 0.162514805794  , 0.204633072019  , 0.236614912748  , 0.235334455967  , 0.277100384235  , 0.376476585865  , 0.455691725016  , 0.487914681435  , 0.528317451477  , 0.65979206562  , 0.760593950748  , 0.829451620579  , 0.750462472439  , 0.577332913876  , 0.365338027477  , 0.13639433682  , 0.048804409802  , 0.089218467474  , 0.159080058336  , 0.167887210846  , 0.221735298634  , 0.264454483986  , 0.299150913954  , 0.313707411289  , 0.414719969034  , 0.501745343208  , 0.564209163189  , 0.647736668587  , 0.740004956722  , 0.764468193054  , 0.737541615963  , 0.74087947607  , 0.467259347439  , 0.124371744692  , 0.023331839591  , 0.089337110519  , 0.156147614121  , 0.234987705946  , 0.231589853764  , 0.24284312129  , 0.299500524998  , 0.398933261633  , 0.457223445177  , 0.514915287495  , 0.615118741989  , 0.710880637169  , 0.750589132309  , 0.844649851322  , 0.909222245216  , 0.861630856991  , 0.780523300171  , 0.427120059729  , 0.122675158083  , 0.025280334055  , 0.076009556651  , 0.161498606205  , 0.219757974148  , 0.210723921657  , 0.240535289049  , 0.297627776861  , 0.35365357995  , 0.401141285896  , 0.547781407833  , 0.632349014282  , 0.714965224266  , 0.774235188961  , 0.794388711452  , 0.874677717686  , 0.893467783928  , 0.68877518177  , 0.374633580446  , 0.150162816048  , 0.038816574961  , 0.019203465432  , 0.082737095654  , 0.155448406935  , 0.179410129786  , 0.264207273722  , 0.261470556259  , 0.353739649057  , 0.024881541729  , 0.057769589126  , 0.117291100323  , 0.225232884288  , 0.259481608868  , 0.253655016422  , 0.269693225622  , 0.313121527433  , 0.381419837475 );
                        kernels[32] = compute_kernel(x,   0.115390442312  , 0.046951379627  , 0.01127451472  , 0.122096650302  , 0.262924104929  , 0.337910622358  , 0.452537298203  , 0.560102522373  , 0.680914461613  , 0.564691722393  , 0.382390797138  , 0.18612575531  , 0.061673182994  , 0.076010137796  , 0.165026545525  , 0.183267220855  , 0.174140289426  , 0.217121168971  , 0.247172132134  , 0.35484701395  , 0.438226044178  , 0.520813405514  , 0.56427437067  , 0.735346078873  , 0.878195405006  , 0.933104455471  , 0.834386944771  , 0.573691666126  , 0.273670256138  , 0.05338780582  , 0.021908007562  , 0.051448624581  , 0.127701207995  , 0.107055611908  , 0.15422321856  , 0.17064806819  , 0.21189583838  , 0.305378168821  , 0.436721026897  , 0.52257335186  , 0.56528455019  , 0.655169069767  , 0.771577358246  , 0.866368293762  , 0.93167668581  , 0.702863872051  , 0.30152118206  , 0.104567140341  , 0.098809979856  , 0.119297921658  , 0.19781281054  , 0.216223701835  , 0.149263009429  , 0.193924695253  , 0.21666046977  , 0.219927117229  , 0.287307173014  , 0.409557253122  , 0.509578168392  , 0.60177975893  , 0.752063751221  , 0.779027998447  , 0.68821823597  , 0.359049886465  , 0.160571083426  , 0.073435887694  , 0.071146219969  , 0.137401714921  , 0.174437969923  , 0.136144042015  , 0.104815833271  , 0.173420503736  , 0.275505304337  , 0.327786177397  , 0.427043139935  , 0.513791143894  , 0.588041126728  , 0.657600641251  , 0.760394513607  , 0.779896080494  , 0.597926497459  , 0.345327079296  , 0.192297756672  , 0.077138744295  , 0.037768770009  , 0.100454561412  , 0.148956298828  , 0.144351378083  , 0.13773098588  , 0.160437256098  , 0.199659198523  , 0.314013391733  , 0.356802344322  , 0.416459023952  , 0.483107298613  , 0.58470582962  , 0.712705016136  , 0.612959265709  , 0.375790834427  , 0.162315160036  , 0.042197655886  , 0.03698014468  , 0.110362246633  , 0.175618991256  , 0.646645128727  , 0.672218561172  , 0.772709071636  , 0.90611499548  , 0.903399407864  , 0.627960324287  , 0.288007259369  , 0.180724486709  , 0.218911424279 );
                        kernels[33] = compute_kernel(x,   0.320688694715  , 0.409838408232  , 0.50421243906  , 0.580019295216  , 0.634212911129  , 0.672159194946  , 0.569746494293  , 0.438703745604  , 0.447248220444  , 0.344974964857  , 0.229709893465  , 0.16467615962  , 0.066733449697  , 0.088097907603  , 0.081031627953  , 0.068106032908  , 0.085050866008  , 0.106881842017  , 0.154592081904  , 0.194504737854  , 0.260164320469  , 0.322479516268  , 0.371002346277  , 0.445987075567  , 0.421666651964  , 0.287675321102  , 0.148936241865  , 0.060714125633  , 0.073956474662  , 0.096568331122  , 0.106074310839  , 0.108963146806  , 0.130840584636  , 0.161206975579  , 0.220032826066  , 0.252296566963  , 0.289591580629  , 0.342891961336  , 0.445436894894  , 0.51166588068  , 0.399063020945  , 0.225465327501  , 0.096218541265  , 0.048842959106  , 0.114011779428  , 0.149482160807  , 0.147064715624  , 0.139265432954  , 0.147159576416  , 0.207366853952  , 0.238419771194  , 0.292507439852  , 0.35238841176  , 0.409159958363  , 0.406846642494  , 0.275782138109  , 0.158340394497  , 0.096965432167  , 0.076686002314  , 0.080914355814  , 0.136779084802  , 0.118379980326  , 0.133516982198  , 0.205881521106  , 0.233021467924  , 0.281580984592  , 0.337375998497  , 0.412378251553  , 0.442340195179  , 0.38006311655  , 0.183586239815  , 0.050352219492  , 0.04757732898  , 0.097736589611  , 0.134084016085  , 0.153706595302  , 0.116286210716  , 0.149323344231  , 0.23552493751  , 0.32652336359  , 0.367075502872  , 0.435428589582  , 0.530668497086  , 0.624709486961  , 0.651659369469  , 0.543837547302  , 0.322401493788  , 0.133415281773  , 0.044370338321  , 0.083710461855  , 0.149615645409  , 0.138180464506  , 0.106916636229  , 0.214684441686  , 0.326527088881  , 0.413326740265  , 0.502383947372  , 0.579527914524  , 0.674774646759  , 0.82366669178  , 0.869782686234  , 0.810837626457  , 0.61106300354  , 0.327077507973  , 0.0316439569  , 0.06039172411  , 0.066544145346  , 0.028033068404  , 0.080877684057  , 0.137952789664  , 0.152666643262  , 0.125648349524  , 0.085647687316 );
                        kernels[34] = compute_kernel(x,   0.276908189058  , 0.12913158536  , 0.064194478095  , 0.085069432855  , 0.122702695429  , 0.173485636711  , 0.131440892816  , 0.162506490946  , 0.195638746023  , 0.318555802107  , 0.449727535248  , 0.550196230412  , 0.674511194229  , 0.789117157459  , 0.797777473927  , 0.609074234962  , 0.387824714184  , 0.188774704933  , 0.001889951993  , 0.033754508942  , 0.074079684913  , 0.085024341941  , 0.10062982142  , 0.11039506644  , 0.16628831625  , 0.220673814416  , 0.328542888165  , 0.454914301634  , 0.581562280655  , 0.708089053631  , 0.798334121704  , 0.887995660305  , 0.746421456337  , 0.4428563416  , 0.150971740484  , -0.006841744296  , -0.004396041855  , 0.055866017938  , 0.146772459149  , 0.151754230261  , 0.139456659555  , 0.20340681076  , 0.293977290392  , 0.383303701878  , 0.493517249823  , 0.600833654404  , 0.745306015015  , 0.924364686012  , 0.974615335464  , 0.789251029491  , 0.382474660873  , 0.021112175658  , -0.039818074554  , 0.059550270438  , 0.167632952332  , 0.17513692379  , 0.151427492499  , 0.176025077701  , 0.266645133495  , 0.362745702267  , 0.470041453838  , 0.588464140892  , 0.709825098515  , 0.871777117252  , 0.931477129459  , 0.835662066936  , 0.443893492222  , 0.115573979914  , 0.00099130848  , 0.039267271757  , 0.134524405003  , 0.160253688693  , 0.178687274456  , 0.187800437212  , 0.281542658806  , 0.390315890312  , 0.493517696857  , 0.603166162968  , 0.708756089211  , 0.878257095814  , 1.001150012016  , 0.851135313511  , 0.435634076595  , 0.081379659474  , -0.031989458948  , 0.037274487317  , 0.102212369442  , 0.162134513259  , 0.192271828651  , 0.173004567623  , 0.232658669353  , 0.311206102371  , 0.389469325542  , 0.486058861017  , 0.628544986248  , 0.829407215118  , 0.847873628139  , 0.505803763866  , 0.162971332669  , 0.028307721019  , -0.022185426205  , 0.044332120568  , 0.096006058156  , 0.1357447505  , 0.018902994692  , 0.079522505403  , 0.151613861322  , 0.133905395865  , 0.122036390007  , 0.205277696252  , 0.358677536249  , 0.494765371084  , 0.644430577755 );
                        kernels[35] = compute_kernel(x,   0.352134615183  , 0.271642684937  , 0.213692039251  , 0.17183804512  , 0.194487601519  , 0.25369015336  , 0.295659184456  , 0.348917871714  , 0.492329180241  , 0.618135988712  , 0.727520883083  , 0.777214348316  , 0.864675402641  , 0.904360175133  , 0.856489956379  , 0.718258738518  , 0.341141998768  , 0.02829632163  , 0.037280842662  , 0.200297176838  , 0.276433974504  , 0.326630800962  , 0.338895648718  , 0.395026683807  , 0.459971308708  , 0.608690500259  , 0.672496140003  , 0.807962119579  , 0.963988602161  , 0.9997138381  , 0.727578401566  , 0.241567805409  , 0.070593871176  , 0.107390753925  , 0.28543356061  , 0.401442110538  , 0.38905620575  , 0.365056037903  , 0.486210346222  , 0.602055966854  , 0.65455198288  , 0.762595713139  , 0.827332794666  , 0.937076330185  , 0.889191448689  , 0.603288471699  , 0.165323421359  , 0.07229155302  , 0.251235544682  , 0.414545863867  , 0.466177672148  , 0.454714119434  , 0.465934485197  , 0.512899160385  , 0.590981841087  , 0.682431638241  , 0.8420317173  , 0.882798135281  , 0.792683601379  , 0.681249976158  , 0.38406547904  , 0.139257475734  , 0.101619780064  , 0.28602617979  , 0.406550496817  , 0.438952326775  , 0.464131236076  , 0.532376408577  , 0.551875829697  , 0.638966917992  , 0.799736499786  , 0.793163180351  , 0.719074368477  , 0.524526119232  , 0.18572460115  , 0.05846375972  , 0.178870067  , 0.351360946894  , 0.380554080009  , 0.401119709015  , 0.440113902092  , 0.478201955557  , 0.565601587296  , 0.706546902657  , 0.726551651955  , 0.690653562546  , 0.544125139713  , 0.262674450874  , 0.162455260754  , 0.133949801326  , 0.060476228595  , 0.160214498639  , 0.337526977062  , 0.371386259794  , 0.448544234037  , 0.535592556  , 0.570714592934  , 0.622647047043  , 0.705291450024  , 0.500078976154  , 0.192939400673  , 0.106402680278  , 0.13411436975  , 0.174956530333  , 0.961730957031  , 0.676564335823  , 0.417092710733  , 0.30430495739  , 0.341774910688  , 0.353730142117  , 0.456227213144  , 0.474790900946  , 0.461352229118 );
                        kernels[36] = compute_kernel(x,   0.8742852211  , 0.875427782536  , 0.792593598366  , 0.704548597336  , 0.636635065079  , 0.601514339447  , 0.576141834259  , 0.609717011452  , 0.740344643593  , 0.762914061546  , 0.815896332264  , 0.825767099857  , 0.820947408676  , 0.839634180069  , 0.884207606316  , 0.905716538429  , 0.849110305309  , 0.680325627327  , 0.590144991875  , 0.577071249485  , 0.629041850567  , 0.716800570488  , 0.749093592167  , 0.784376561642  , 0.785822808743  , 0.854600191116  , 0.883999407291  , 0.927988111973  , 0.943257629871  , 0.932698309422  , 0.79437482357  , 0.585236608982  , 0.599458158016  , 0.602588713169  , 0.6361951828  , 0.666560411453  , 0.641011178493  , 0.651078522205  , 0.744982004166  , 0.830397665501  , 0.870824456215  , 0.923286616802  , 0.935361862183  , 0.982120275497  , 0.977432906628  , 0.830548346043  , 0.602242827415  , 0.532473564148  , 0.591141819954  , 0.607980251312  , 0.648953735828  , 0.651804685593  , 0.678966283798  , 0.75721758604  , 0.821409285069  , 0.859633088112  , 0.900356948376  , 0.931557357311  , 0.935904741287  , 0.88968962431  , 0.760480165482  , 0.622999966145  , 0.575085878372  , 0.580331861973  , 0.592876911163  , 0.602509975433  , 0.60587477684  , 0.645833134651  , 0.729174792767  , 0.815359652042  , 0.841181635857  , 0.856393396854  , 0.918543696404  , 0.908751368523  , 0.796294331551  , 0.630491554737  , 0.550787270069  , 0.578240096569  , 0.599279463291  , 0.642549097538  , 0.662416636944  , 0.703101158142  , 0.748360216618  , 0.819966554642  , 0.849386632442  , 0.873496413231  , 0.886320352554  , 0.859742283821  , 0.824659228325  , 0.6978982687  , 0.550945937634  , 0.513878166676  , 0.534441888332  , 0.516458749771  , 0.5349817276  , 0.577963709831  , 0.597215056419  , 0.577863097191  , 0.580554962158  , 0.560927808285  , 0.554992735386  , 0.525763094425  , 0.343329280615  , 0.176278501749  , 0.603144466877  , 0.6166446805  , 0.577172994614  , 0.581453621387  , 0.64281475544  , 0.639629900455  , 0.70759832859  , 0.777267932892  , 0.81728130579 );
                        kernels[37] = compute_kernel(x,   0.28438487649  , 0.331340134144  , 0.439798116684  , 0.491653263569  , 0.519920706749  , 0.591147482395  , 0.601375460625  , 0.591929256916  , 0.742012500763  , 0.763642847538  , 0.78808003664  , 0.856862127781  , 0.689611792564  , 0.281203716993  , 0.056972809136  , 0.059816300869  , 0.16938854754  , 0.273039221764  , 0.289835691452  , 0.332313090563  , 0.400310784578  , 0.525910139084  , 0.575016319752  , 0.635239541531  , 0.695543706417  , 0.789151668549  , 0.864983618259  , 0.802545905113  , 0.598233342171  , 0.247517794371  , 0.084555767477  , 0.067663058639  , 0.16358666122  , 0.216906428337  , 0.328246325254  , 0.374672472477  , 0.390917897224  , 0.459718585014  , 0.538936913013  , 0.592461168766  , 0.624175786972  , 0.724311590195  , 0.799778282642  , 0.83323776722  , 0.855122148991  , 0.725553512573  , 0.416046887636  , 0.199410662055  , 0.079101800919  , 0.096863433719  , 0.220801919699  , 0.334237724543  , 0.333813995123  , 0.400773853064  , 0.438219726086  , 0.492710649967  , 0.578562676907  , 0.628766894341  , 0.57626748085  , 0.605998814106  , 0.764111697674  , 0.873742103577  , 0.831853151321  , 0.521198034286  , 0.257762163877  , 0.138797342777  , 0.073626801372  , 0.035185772926  , 0.057680379599  , 0.033074636012  , 0.075956046581  , 0.127184584737  , 0.171873554587  , 0.160458222032  , 0.140817180276  , 0.195903748274  , 0.32501989603  , 0.447331368923  , 0.54994392395  , 0.591582655907  , 0.551151573658  , 0.461374044418  , 0.322851479053  , 0.143325641751  , 0.060480508953  , 0.061431981623  , 0.046996764839  , 0.074373595417  , 0.094592213631  , 0.100389704108  , 0.065004020929  , 0.054797466844  , 0.083919748664  , 0.122866213322  , 0.255003422499  , 0.396497666836  , 0.534221291542  , 0.682773351669  , 0.736814260483  , 0.629508316517  , 0.336700469255  , 0.113857537508  , 0.056046850979  , 0.052358724177  , 0.866974651814  , 0.89460080862  , 0.853374481201  , 0.514755785465  , 0.227380022407  , 0.066651336849  , 0.119750000536  , 0.26232624054  , 0.342513740063 );
                        kernels[38] = compute_kernel(x,   0.461494266987  , 0.456591129303  , 0.408748745918  , 0.322748690844  , 0.271312505007  , 0.322619915009  , 0.399736881256  , 0.474943697453  , 0.371334671974  , 0.391338914633  , 0.397187948227  , 0.445536673069  , 0.491666078568  , 0.548769652843  , 0.599691092968  , 0.69549870491  , 0.783822119236  , 0.845602810383  , 0.754315316677  , 0.495996028185  , 0.236124455929  , 0.083177193999  , 0.114128708839  , 0.221762880683  , 0.296547830105  , 0.318873971701  , 0.276539981365  , 0.275703728199  , 0.338856697083  , 0.449931114912  , 0.52188628912  , 0.627617955208  , 0.728972673416  , 0.788577198982  , 0.738372325897  , 0.622111976147  , 0.399045705795  , 0.173291563988  , 0.136837050319  , 0.237258180976  , 0.271522760391  , 0.290186583996  , 0.287251740694  , 0.261635899544  , 0.318390995264  , 0.402788221836  , 0.492950558662  , 0.544799149036  , 0.595398306847  , 0.703754842281  , 0.813599646091  , 0.786633372307  , 0.612189650536  , 0.409702450037  , 0.215832486749  , 0.148789390922  , 0.188480108976  , 0.255549520254  , 0.240589752793  , 0.246087029576  , 0.281196475029  , 0.30031311512  , 0.340333670378  , 0.424750447273  , 0.477411150932  , 0.543370842934  , 0.662048399448  , 0.75153106451  , 0.722636461258  , 0.607209146023  , 0.350666314363  , 0.15859387815  , 0.111224226654  , 0.16718249023  , 0.246567085385  , 0.286093741655  , 0.253882735968  , 0.256647288799  , 0.290387034416  , 0.367650151253  , 0.448646098375  , 0.527041077614  , 0.568565607071  , 0.710283994675  , 0.801767110825  , 0.837080419064  , 0.639620602131  , 0.370390564203  , 0.177908748388  , 0.133859008551  , 0.188160777092  , 0.296219974756  , 0.340761125088  , 0.300372630358  , 0.275838583708  , 0.335870862007  , 0.430140316486  , 0.501588463783  , 0.618169307709  , 0.666049718857  , 0.755826532841  , 0.844687044621  , 0.865427553654  , 0.705824315548  , 0.006020080298  , 0.074998699129  , 0.135859817266  , 0.226338908076  , 0.366004437208  , 0.459047079086  , 0.51432710886  , 0.632390379906  , 0.712799787521 );
                        kernels[39] = compute_kernel(x,   0.228060513735  , 0.267749220133  , 0.29553732276  , 0.27866768837  , 0.349241197109  , 0.460364639759  , 0.567327439785  , 0.689524173737  , 0.763562083244  , 0.834228396416  , 0.784839451313  , 0.586088657379  , 0.310180544853  , 0.144979119301  , 0.143500491977  , 0.173967510462  , 0.214852675796  , 0.210301935673  , 0.197919517756  , 0.205390974879  , 0.27881115675  , 0.376592725515  , 0.444552540779  , 0.577016711235  , 0.715080797672  , 0.741830587387  , 0.671180188656  , 0.504658997059  , 0.259153574705  , 0.086441025138  , 0.100039571524  , 0.192718967795  , 0.239292994142  , 0.252891421318  , 0.258117944002  , 0.294001698494  , 0.34474119544  , 0.390444129705  , 0.450852453709  , 0.538424015045  , 0.653649687767  , 0.76786583662  , 0.795700490475  , 0.563995718956  , 0.236129552126  , 0.079529978335  , 0.152738884091  , 0.25689893961  , 0.316481679678  , 0.281628966331  , 0.222868353128  , 0.232069015503  , 0.288383096457  , 0.371917843819  , 0.419175058603  , 0.491114675999  , 0.606840133667  , 0.657662510872  , 0.503834664822  , 0.258680999279  , 0.116791911423  , 0.135858103633  , 0.212784335017  , 0.243840768933  , 0.245183110237  , 0.219590514898  , 0.21859356761  , 0.266189664602  , 0.325922846794  , 0.365814507008  , 0.43507835269  , 0.565059304237  , 0.650367438793  , 0.604636669159  , 0.360224604607  , 0.171573251486  , 0.11595261842  , 0.110103577375  , 0.208294272423  , 0.239212855697  , 0.213143855333  , 0.185837909579  , 0.227905839682  , 0.289844453335  , 0.337515085936  , 0.405858129263  , 0.476565748453  , 0.529613733292  , 0.545915126801  , 0.560874402523  , 0.507281184196  , 0.253843009472  , 0.108048677444  , 0.126284018159  , 0.153154551983  , 0.134885936975  , 0.095716714859  , 0.062175434083  , 0.024414051324  , 0.081981897354  , 0.094834893942  , 0.108327716589  , 0.119245909154  , 0.166377872229  , 0.032056331635  , 0.04723803699  , 0.053035445511  , 0.065044037998  , 0.084296695888  , 0.103968881071  , 0.095572158694  , 0.133809760213  , 0.211551174521 );
                        kernels[40] = compute_kernel(x,   0.302967816591  , 0.324151098728  , 0.335144549608  , 0.388616502285  , 0.47931188345  , 0.564114034176  , 0.649844765663  , 0.685945034027  , 0.689408779144  , 0.677465677261  , 0.588612675667  , 0.337321430445  , 0.062923148274  , 0.015536663122  , 0.10347981751  , 0.159457504749  , 0.1636364609  , 0.181848421693  , 0.068679079413  , 0.001159980427  , 0.081659540534  , 0.141002193093  , 0.127612575889  , 0.269210457802  , 0.449942559004  , 0.508562088013  , 0.486623346806  , 0.425897657871  , 0.274338543415  , 0.087167628109  , 0.080524370074  , 0.16849412024  , 0.282873004675  , 0.390607088804  , 0.377989530563  , 0.338222384453  , 0.340186238289  , 0.416155278683  , 0.519802033901  , 0.583398401737  , 0.624341487885  , 0.686227738857  , 0.815721690655  , 0.901873588562  , 0.913070499897  , 0.694234311581  , 0.335792899132  , 0.152635157108  , 0.095698699355  , 0.151218399405  , 0.145240828395  , 0.124046914279  , 0.01082927268  , 0.037975139916  , 0.072829015553  , 0.153523087502  , 0.228252694011  , 0.275169014931  , 0.384508192539  , 0.534748971462  , 0.666989564896  , 0.683203577995  , 0.532680690289  , 0.196639627218  , 0.048178449273  , 0.096389949322  , 0.239569753408  , 0.348016560078  , 0.383575171232  , 0.353963792324  , 0.297989875078  , 0.388970196247  , 0.483002305031  , 0.564642369747  , 0.641626298428  , 0.690711736679  , 0.795685887337  , 0.829426586628  , 0.652787864208  , 0.374771088362  , 0.132097423077  , 0.10428006202  , 0.176219731569  , 0.3755402565  , 0.446538388729  , 0.339397639036  , 0.329045176506  , 0.350641608238  , 0.53421664238  , 0.638470053673  , 0.712524354458  , 0.708765089512  , 0.727166473866  , 0.839926898479  , 0.88805860281  , 0.599931120872  , 0.247465670109  , 0.073362760246  , 0.098449356854  , 0.239267840981  , 0.360297262669  , 0.376890003681  , 0.29591524601  , 0.302894949913  , 0.00747044757  , 0.044356666505  , 0.119598858058  , 0.08742659539  , 0.145179644227  , 0.234122559428  , 0.3319658041  , 0.427394121885  , 0.576900482178 );
                        kernels[41] = compute_kernel(x,   0.190112709999  , 0.20259231329  , 0.234707400203  , 0.29488658905  , 0.395159453154  , 0.505417466164  , 0.557758927345  , 0.614033699036  , 0.694603383541  , 0.751575887203  , 0.599106371403  , 0.333678781986  , 0.06424331665  , -0.029686775059  , 0.05717100203  , 0.146829813719  , 0.195686623454  , 0.172940447927  , 0.206875875592  , 0.246631234884  , 0.332456797361  , 0.402951270342  , 0.48473995924  , 0.585342228413  , 0.65361303091  , 0.730090498924  , 0.751663863659  , 0.668774068356  , 0.318401247263  , 0.056045975536  , 0.008216291666  , 0.109479054809  , 0.178383722901  , 0.221638485789  , 0.23992022872  , 0.232448980212  , 0.299017131329  , 0.381630331278  , 0.410701990128  , 0.484364271164  , 0.603945434093  , 0.689548969269  , 0.704995214939  , 0.530857384205  , 0.234861657023  , 0.009149115533  , 0.011990227737  , 0.072003223002  , 0.155369207263  , 0.223438918591  , 0.202259764075  , 0.185732752085  , 0.265359461308  , 0.35078394413  , 0.422266662121  , 0.536738693714  , 0.629275679588  , 0.702859997749  , 0.668689012527  , 0.475042581558  , 0.180422499776  , -0.002941874787  , -0.004021898843  , 0.100088566542  , 0.205729842186  , 0.253873288631  , 0.213687807322  , 0.196531459689  , 0.287499904633  , 0.415029644966  , 0.504053533077  , 0.553421258926  , 0.623057961464  , 0.705574929714  , 0.802052676678  , 0.805011034012  , 0.564521253109  , 0.207124859095  , 0.047513607889  , 0.033859301358  , 0.110511355102  , 0.154541701078  , 0.239035561681  , 0.212097361684  , 0.211190372705  , 0.297715574503  , 0.435070633888  , 0.538480997086  , 0.622218728065  , 0.717149019241  , 0.810527920723  , 0.901640474796  , 0.895017445087  , 0.713042736053  , 0.32905164361  , 0.081772960722  , 0.034341398627  , 0.071921907365  , 0.113440223038  , 0.166708290577  , 0.183550938964  , 0.233237981796  , 0.29158693552  , 0.403381019831  , 0.63547039032  , 0.727984249592  , 0.731522083282  , 0.59773004055  , 0.316635876894  , 0.130439639091  , 0.020811535418  , 0.009350737557  , 0.089096285403 );
                        kernels[42] = compute_kernel(x,   0.625078201294  , 0.482501924038  , 0.344346106052  , 0.244672596455  , 0.301210910082  , 0.38487046957  , 0.478154748678  , 0.514188587666  , 0.500937044621  , 0.546098172665  , 0.628498494625  , 0.702325284481  , 0.761312603951  , 0.820420622826  , 0.853740811348  , 0.757331311703  , 0.565158784389  , 0.432576060295  , 0.285066217184  , 0.242165029049  , 0.345134437084  , 0.439413666725  , 0.445517271757  , 0.45510160923  , 0.446801483631  , 0.506651163101  , 0.538728892803  , 0.600648641586  , 0.708223462105  , 0.778057157993  , 0.773867070675  , 0.631451547146  , 0.484135121107  , 0.302172422409  , 0.247857272625  , 0.373281061649  , 0.487813651562  , 0.493192911148  , 0.474782645702  , 0.497821778059  , 0.523725628853  , 0.593099176884  , 0.658036351204  , 0.691483736038  , 0.76864528656  , 0.86128115654  , 0.760202288628  , 0.561046719551  , 0.323508292437  , 0.192972034216  , 0.303579449654  , 0.471199542284  , 0.471917867661  , 0.431402981281  , 0.404441177845  , 0.44623363018  , 0.55353063345  , 0.644318401814  , 0.703735947609  , 0.766143977642  , 0.904908180237  , 0.973660230637  , 0.831141591072  , 0.463542282581  , 0.20766171813  , 0.136318773031  , 0.273412704468  , 0.442073762417  , 0.458438932896  , 0.430618345737  , 0.376864314079  , 0.456552237272  , 0.557259202003  , 0.664665222168  , 0.764448881149  , 0.807989835739  , 0.919117033482  , 0.950815916061  , 0.749301075935  , 0.478449821472  , 0.22621011734  , 0.250366985798  , 0.362967908382  , 0.520378410816  , 0.516802191734  , 0.445300281048  , 0.41346269846  , 0.495383709669  , 0.614310741425  , 0.648403167725  , 0.674455821514  , 0.745436251163  , 0.809354126453  , 0.7384365201  , 0.609884083271  , 0.390120476484  , 0.250057548285  , 0.30821198225  , 0.444440960884  , 0.463743329048  , 0.437775105238  , 0.464206576347  , 0.495030909777  , 0.544176757336  , 0.047381564975  , 0.07819108665  , 0.18241995573  , 0.292318493128  , 0.488859444857  , 0.613648056984  , 0.688017010689  , 0.68783479929  , 0.549489140511 );
                        kernels[43] = compute_kernel(x,   0.147681355476  , 0.174210995436  , 0.145645171404  , 0.164902120829  , 0.282141447067  , 0.346921384335  , 0.465776860714  , 0.656345486641  , 0.719561100006  , 0.699974656105  , 0.52383005619  , 0.278731107712  , 0.086174964905  , 0.079893894494  , 0.194270506501  , 0.346064388752  , 0.379510343075  , 0.350191354752  , 0.384827375412  , 0.465781509876  , 0.589101850986  , 0.64298593998  , 0.672927439213  , 0.749306619167  , 0.807085394859  , 0.804470658302  , 0.832198023796  , 0.741304278374  , 0.387698441744  , 0.148109853268  , 0.088249571621  , 0.060839932412  , 0.090060569346  , 0.115540482104  , 0.122615590692  , 0.087056815624  , 0.095724932849  , 0.166151940823  , 0.1969512254  , 0.277391344309  , 0.355399549007  , 0.499667108059  , 0.599331259727  , 0.614666104317  , 0.521056056023  , 0.316282868385  , 0.146764472127  , 0.124200433493  , 0.263701498508  , 0.355047553778  , 0.400923967361  , 0.361542373896  , 0.427762895823  , 0.461135715246  , 0.525127530098  , 0.62942558527  , 0.655936121941  , 0.675400853157  , 0.754283249378  , 0.843925833702  , 0.634980976582  , 0.292137652636  , 0.143023133278  , 0.201736524701  , 0.267474800348  , 0.346881449223  , 0.359879046679  , 0.307321459055  , 0.347035437822  , 0.448812782764  , 0.582024812698  , 0.61058229208  , 0.656734883785  , 0.734353482723  , 0.796288967133  , 0.706995785236  , 0.446113049984  , 0.232925713062  , 0.146503552794  , 0.177435517311  , 0.250569850206  , 0.331577569246  , 0.400671094656  , 0.414424538612  , 0.455284148455  , 0.566552221775  , 0.638121902943  , 0.704679429531  , 0.73162484169  , 0.817124009132  , 0.812365174294  , 0.61856597662  , 0.365873813629  , 0.196336165071  , 0.159212931991  , 0.198609292507  , 0.29476839304  , 0.333015173674  , 0.304922312498  , 0.333017528057  , 0.458918958902  , 0.589884638786  , 0.642883360386  , 0.670136511326  , 0.571288943291  , 0.653354644775  , 0.671536207199  , 0.788616240025  , 0.787190437317  , 0.593943178654  , 0.248699113727  , 0.072230942547  , 0.063652448356 );
                        kernels[44] = compute_kernel(x,   0.288390159607  , 0.237763255835  , 0.23246653378  , 0.251251131296  , 0.32878485322  , 0.33824852109  , 0.388526529074  , 0.472546100616  , 0.475436389446  , 0.544246256351  , 0.587377727032  , 0.694230139256  , 0.759655117989  , 0.873909175396  , 0.896405875683  , 0.728656828403  , 0.305510878563  , 0.148968413472  , 0.069910697639  , 0.002199943643  , 0.051557563245  , 0.095315650105  , 0.047210007906  , 0.02272249572  , 0.063762068748  , 0.041137747467  , 0.054361674935  , 0.165342181921  , 0.292910307646  , 0.378644704819  , 0.459983110428  , 0.535154998302  , 0.511391758919  , 0.421394646168  , 0.220966160297  , 0.075253590941  , 0.032682955265  , 0.082965068519  , 0.146021425724  , 0.206597730517  , 0.205664873123  , 0.239775031805  , 0.266983926296  , 0.274463266134  , 0.330019295216  , 0.363559544086  , 0.452068686485  , 0.521526455879  , 0.592803955078  , 0.594678759575  , 0.576339304447  , 0.378274440765  , 0.183530211449  , 0.089059337974  , 0.090013593435  , 0.146866738796  , 0.173093482852  , 0.179967954755  , 0.145073011518  , 0.207628980279  , 0.270977854729  , 0.333817660809  , 0.407269448042  , 0.456348121166  , 0.563635110855  , 0.605340957642  , 0.635892748833  , 0.644876301289  , 0.755103707314  , 0.862004995346  , 0.87431538105  , 0.686894774437  , 0.220359116793  , 0.026241451502  , 0.033531650901  , 0.142684221268  , 0.170857399702  , 0.2200075984  , 0.20812676847  , 0.172966063023  , 0.213764131069  , 0.270404577255  , 0.298281699419  , 0.407021999359  , 0.499144822359  , 0.516163110733  , 0.572601258755  , 0.671314001083  , 0.563153862953  , 0.246888741851  , 0.057637445629  , 0.049204561859  , 0.077358357608  , 0.131833717227  , 0.25085106492  , 0.230440318584  , 0.195828974247  , 0.232068091631  , 0.317403584719  , 0.316009223461  , 0.365687221289  , 0.473029792309  , 0.52572208643  , 0.563992917538  , 0.394329726696  , 0.409251511097  , 0.460656374693  , 0.523703217506  , 0.547631859779  , 0.46137958765  , 0.165439277887  , -0.002646366134  , 0.03895162791 );
                        kernels[45] = compute_kernel(x,   0.641033768654  , 0.715907871723  , 0.810747385025  , 0.901160061359  , 0.857086181641  , 0.753159582615  , 0.41798043251  , 0.15112477541  , 0.258055329323  , 0.243447840214  , 0.233575493097  , 0.169515430927  , 0.112570792437  , 0.090911954641  , 0.107032671571  , 0.154762595892  , 0.227173894644  , 0.249956652522  , 0.262344390154  , 0.317529827356  , 0.497237473726  , 0.681967377663  , 0.781948208809  , 0.629325985909  , 0.304562956095  , 0.136173442006  , 0.062307868153  , 0.147055491805  , 0.29610517621  , 0.32501500845  , 0.27847725153  , 0.304500222206  , 0.388509422541  , 0.492494910955  , 0.576152205467  , 0.647140324116  , 0.701698064804  , 0.751800715923  , 0.855168998241  , 0.974866509438  , 0.911562144756  , 0.56688773632  , 0.19082121551  , 0.112945184112  , 0.123592928052  , 0.189743161201  , 0.248349547386  , 0.272629499435  , 0.24841453135  , 0.318307936192  , 0.459165543318  , 0.542477190495  , 0.61110073328  , 0.66196000576  , 0.729507565498  , 0.771804392338  , 0.880107700825  , 0.882923364639  , 0.665299594402  , 0.251490086317  , 0.112102583051  , 0.131908670068  , 0.207263931632  , 0.267352700233  , 0.275389313698  , 0.263955235481  , 0.340203911066  , 0.447890758514  , 0.538228392601  , 0.561655163765  , 0.589940845966  , 0.664541304111  , 0.770974874496  , 0.787186920643  , 0.62663936615  , 0.424950569868  , 0.159086033702  , 0.089399367571  , 0.138488322496  , 0.213004872203  , 0.250489354134  , 0.258897185326  , 0.308209866285  , 0.388674885035  , 0.457600444555  , 0.505925059319  , 0.518567025661  , 0.616981387138  , 0.726498603821  , 0.78965896368  , 0.700254380703  , 0.41816341877  , 0.176172509789  , 0.142187550664  , 0.114017650485  , 0.156823247671  , 0.202750444412  , 0.218898653984  , 0.29297542572  , 0.363815844059  , 0.451857626438  , 0.515812218189  , 0.561975955963  , 0.622113287449  , 0.024117052555  , 0.108468614519  , 0.119893155992  , 0.150989070535  , 0.235560879111  , 0.287472337484  , 0.355926305056  , 0.423887699842  , 0.497917234898 );
                        kernels[46] = compute_kernel(x,   0.078748270869  , 0.042977310717  , 0.095719449222  , 0.16453294456  , 0.233408093452  , 0.252648890018  , 0.265235543251  , 0.315304398537  , 0.370037198067  , 0.395786643028  , 0.473450422287  , 0.490559518337  , 0.406221866608  , 0.162328362465  , 0.016565354541  , 0.064688026905  , 0.206043705344  , 0.442770004272  , 0.650311052799  , 0.746649742126  , 0.815758287907  , 0.901118278503  , 0.950833559036  , 0.948590219021  , 0.948303461075  , 0.898549377918  , 0.790135800838  , 0.406970500946  , 0.090997233987  , 0.006803938188  , 0.031679324806  , 0.092886641622  , 0.121308155358  , 0.13305041194  , 0.17645137012  , 0.21945732832  , 0.267079234123  , 0.352350056171  , 0.412696063519  , 0.490217387676  , 0.463252156973  , 0.217332422733  , 0.029959943146  , -0.012188021094  , 0.018555238843  , 0.054660491645  , 0.138507947326  , 0.188775032759  , 0.181920856237  , 0.18188354373  , 0.211688473821  , 0.268557608128  , 0.31802085042  , 0.354807198048  , 0.34305486083  , 0.136656671762  , 0.029155347496  , 0.008202116005  , 0.041572615504  , 0.049840655178  , 0.097516320646  , 0.107852250338  , 0.106653772295  , 0.119829729199  , 0.149111747742  , 0.18604683876  , 0.20902825892  , 0.242633596063  , 0.2517760396  , 0.169111117721  , 0.040447279811  , 0.011124562472  , 0.024941811338  , 0.016494385898  , 0.032174110413  , 0.065044090152  , 0.05628638342  , 0.083263427019  , 0.106415137649  , 0.143932715058  , 0.153319448233  , 0.186402931809  , 0.245914161205  , 0.189522072673  , 0.072810411453  , 0.000194085762  , 0.026648338884  , 0.061448514462  , 0.081953272223  , 0.093236394227  , 0.07406168431  , 0.093903616071  , 0.126899048686  , 0.174332663417  , 0.186779081821  , 0.212531328201  , 0.299689292908  , 0.336328953505  , 0.23252491653  , 0.077197253704  , 0.005128715187  , 0.00684611313  , 0.028261508793  , 0.099841460586  , 0.017318472266  , 0.077219091356  , 0.116865567863  , 0.248726949096  , 0.277895659208  , 0.241174519062  , 0.246007427573  , 0.344008386135  , 0.365381240845 );
